tree
version=v3
num_class=1
num_tree_per_iteration=1
label_index=0
max_feature_idx=480
objective=binary sigmoid:1
feature_names=qp 0 1 2 3 4 5 6 7 8 9 10 11 12 13 14 15 16 17 18 19 20 21 22 23 24 25 26 27 28 29 30 31 32 33 34 35 36 37 38 39 40 41 42 43 44 45 46 47 48 49 50 51 52 53 54 55 56 57 58 59 60 61 62 63 64 65 66 67 68 69 70 71 72 73 74 75 76 77 78 79 80 81 82 83 84 85 86 87 88 89 90 91 92 93 94 95 96 97 98 99 100 101 102 103 104 105 106 107 108 109 110 111 112 113 114 115 116 117 118 119 120 121 122 123 124 125 126 127 128 129 130 131 132 133 134 135 136 137 138 139 140 141 142 143 144 145 146 147 148 149 150 151 152 153 154 155 156 157 158 159 160 161 162 163 164 165 166 167 168 169 170 171 172 173 174 175 176 177 178 179 180 181 182 183 184 185 186 187 188 189 190 191 192 193 194 195 196 197 198 199 200 201 202 203 204 205 206 207 208 209 210 211 212 213 214 215 216 217 218 219 220 221 222 223 224 225 226 227 228 229 230 231 232 233 234 235 236 237 238 239 240 241 242 243 244 245 246 247 248 249 250 251 252 253 254 255 256 257 258 259 260 261 262 263 264 265 266 267 268 269 270 271 272 273 274 275 276 277 278 279 280 281 282 283 284 285 286 287 288 289 290 291 292 293 294 295 296 297 298 299 300 301 302 303 304 305 306 307 308 309 310 311 312 313 314 315 316 317 318 319 320 321 322 323 324 325 326 327 328 329 330 331 332 333 334 335 336 337 338 339 340 341 342 343 344 345 346 347 348 349 350 351 352 353 354 355 356 357 358 359 360 361 362 363 364 365 366 367 368 369 370 371 372 373 374 375 376 377 378 379 380 381 382 383 384 385 386 387 388 389 390 391 392 393 394 395 396 397 398 399 400 401 402 403 404 405 406 407 408 409 410 411 412 413 414 415 416 417 418 419 420 421 422 423 424 425 426 427 428 429 430 431 432 433 434 435 436 437 438 439 440 441 442 443 444 445 446 447 448 449 450 451 452 453 454 455 456 457 458 459 460 461 462 463 464 465 466 467 468 469 470 471 472 473 474 475 476 477 478 479
feature_infos=[22:37] [2.2343926838960806e-13:0.9486299753189088] [4.2046344704560487e-12:0.93888437747955322] [1.2796583454335877e-12:0.95386886596679676] [3.0902558023626625e-07:0.99951636791229237] [6.3871558866543388e-13:0.96673178672790516] [1.8104899524029605e-11:0.90866082906723022] [4.7013364338696628e-13:0.97320324182510376] [1.380941739625996e-06:0.99996578693389881] [4.3426219109403419e-13:0.97862452268600464] [9.7366309893126557e-13:0.92389702796936035] [3.3720018422465919e-13:0.98264646530151356] [8.8471324488637024e-08:0.98014360666275024] [4.2136259759129047e-12:0.97995251417160045] [5.4846037244151227e-14:0.86406028270721436] [3.8725823763019473e-12:0.9770047664642334] [9.2426043920568207e-06:1] [2.3637628380796142e-14:0.96532905101776123] [7.8029749328578646e-10:0.91817063093185425] [5.7674290419428703e-14:0.96662837266921997] [4.3863611409733487e-08:0.99092382192611683] [1.4803142503569573e-14:0.9720936417579652] [1.0223866198089129e-09:0.93875092267990123] [1.7502717821631962e-14:0.96974629163742077] [1.8481538063497283e-05:1] [1.0530448278504077e-14:0.96780002117156982] [4.9040302323014907e-15:0.90780359506607056] [4.6442582716859845e-14:0.96649551391601562] [3.5411784438110772e-07:1] [6.4614489766543773e-20:0.94322127103805542] [1.476900940513583e-15:0.93248760700225841] [3.4446737844117483e-20:0.93638771772384644] [2.1868834210181373e-07:0.99999988079071045] [8.4917003984052997e-12:0.94711059331893921] [2.4713585844438057e-07:0.99999988079071045] [3.3991031500590912e-07:0.99949479103088379] [1.1733848168660186e-06:0.99999988079071045] [4.8232331323339039e-11:0.91271722316741943] [1.3002760397284874e-06:0.99999988079071045] [1.3542668284571846e-06:0.99996376037597656] [3.6973563055653358e-07:0.99999964237213124] [5.1584669695514673e-13:0.92712712287902843] [1.9048685828693126e-07:0.99999964237213124] [1.053331786238232e-07:0.98117816448211681] [1.267463574095018e-07:0.9999995231628418] [6.1044946224678141e-14:0.87909042835235596] [1.7373990601754485e-07:0.9999995231628418] [9.2437057901406661e-06:1] [3.9605824175836796e-10:0.99999940395355225] [6.9085576148708573e-10:0.91918736696243275] [3.6453556839788353e-10:0.99999940395355225] [2.635487739155451e-08:0.99077260494232178] [3.6538827519194678e-10:0.9999995231628418] [1.4869105946502259e-10:0.93752187490463257] [1.5596732794165293e-09:0.99999964237213124] [1.6149002476595342e-05:1] [6.5866272436210238e-09:0.9999995231628418] [2.9774872515730012e-15:0.91601908206939697] [7.4746244749235302e-09:0.9999995231628418] [5.8779971823241784e-07:1] [1.4541113538962813e-12:1] [2.3602702247765531e-15:0.94168317317962635] [2.4319524258992202e-12:1] [6.9272234839599594e-15:0.90981310606002797] [2.0741253766581869e-12:0.98029720783233643] [2.7463259463333765e-14:0.91464829444885243] [1.8345377839068533e-07:0.99881881475448597] [2.9295606874613425e-14:0.93655991554260243] [1.0461970916322838e-12:0.95632123947143555] [3.0472318597466249e-14:0.94133162498474121] [8.217542131205845e-07:0.99994575977325439] [3.1967257210470737e-14:0.94127321243286122] [4.0084051224455793e-15:0.93838214874267578] [3.5813034124625865e-14:0.94307059049606323] [9.6640533797653929e-08:0.98094236850738525] [2.4774634926026662e-13:0.92261534929275524] [1.1344379178179678e-14:0.90643173456192017] [1.1378081094491619e-13:0.92327004671096802] [9.2459013103507459e-06:1] [1.0327942870787627e-16:0.91045188903808605] [8.8422906149854263e-12:0.92612248659133922] [2.8419278869361861e-16:0.91568005084991455] [2.983784108678833e-09:0.9903225302696228] [2.699471999895161e-17:0.91961854696273793] [8.6461783913027723e-12:0.94705480337142944] [1.2324627167570591e-16:0.91879564523696911] [4.0598213672637939e-05:1] [5.2736465683496681e-18:0.94717466831207275] [2.9956455733193244e-16:0.93503433465957642] [4.1962356314112855e-17:0.95178139209747314] [1.260719955098466e-07:1] [4.1369761357394699e-20:0.94492506980895996] [7.959024810196523e-15:0.94311279058456421] [5.6617417464306206e-20:0.9320451021194458] [1.6144672372320199e-06:1] [5.3372692550290868e-13:0.98027634620666504] [1.7408139001418022e-06:1] [4.1041653275897261e-07:0.99898868799209595] [2.6724610506789759e-06:1] [1.6144977878478769e-13:0.95168584585189819] [2.488766540409415e-06:1] [6.4288559542546864e-07:0.99995553493499756] [1.3129034641679027e-06:1] [7.7064116332380313e-16:0.93266135454177856] [1.1954978162975749e-06:1] [9.2781718308287964e-08:0.97932463884353638] [1.1586841992539119e-06:1] [1.2515709065443889e-15:0.90477812290191639] [1.2082110742994698e-06:1] [9.2465625129989365e-06:1] [5.8374456557430676e-07:1] [2.6686717072288424e-11:0.92131638526916504] [5.9300560906194722e-07:1] [1.11039630823484e-08:0.99064528942108165] [1.02735521068098e-06:1] [3.5111157037359675e-11:0.94437164068222035] [1.1385294556021108e-06:1] [4.8582547606201836e-05:1] [8.9859468062059022e-06:1] [1.9405195272839982e-16:0.93839454650878917] [1.1513742720126174e-05:1] [2.7775047328759683e-07:1] [2.4410427457155486e-08:1] [3.1300482615271045e-15:0.94497317075729359] [2.5754237853448106e-08:1] [5.9082099835346819e-14:0.91532504558563244] [1.8141419627377278e-13:0.976332187652588] [4.6206314734684514e-14:0.93148320913314819] [1.0986634935150619e-09:0.99964594841003418] [3.7265790496857076e-15:0.9300459623336792] [4.3213269605452825e-14:0.89877974987030029] [5.1187768013529782e-15:0.92112123966217041] [9.6153360118478304e-07:0.99988460540771484] [1.1742843297139066e-13:0.93050968647003163] [1.0172206599012064e-16:0.8929106593132019] [2.3653786720111152e-13:0.93440598249435425] [2.9652361122067816e-10:0.97582417726516724] [6.0786575425964006e-13:0.93757027387619019] [1.993681432636046e-16:0.87844455242156982] [2.8465489514128967e-13:0.92642068862915039] [9.2437585408333672e-06:1] [1.5891843559205517e-18:0.94914329051971436] [7.0792476698430806e-13:0.93307715654373158] [1.1741409414619665e-17:0.95671266317367565] [4.5122651275153469e-12:0.99191707372665405] [1.5379654357888452e-18:0.95457428693771362] [2.3911040248486559e-12:0.91410958766937256] [1.010798578517855e-18:0.95723146200180043] [3.8844813389005139e-05:1] [8.9435624090414315e-21:0.93687266111373901] [9.2994572682579794e-18:0.96154576539993275] [8.8161691630074482e-20:0.9358043074607848] [4.0545922175283522e-09:1] [5.0743148300027564e-22:0.91487723588943481] [1.932334806733357e-16:0.94193971157073964] [6.9464632592092907e-22:0.91021335124969482] [6.4901811924755748e-08:0.99959450960159302] [5.7771203185869046e-13:0.97444486618042003] [6.9898135279800031e-08:0.99957019090652477] [6.4886401807129346e-10:0.99967920780181885] [1.1226138951769826e-07:0.99949526786804199] [1.2657603643603105e-13:0.9002300500869751] [8.7132278281387698e-08:0.99939763545990001] [9.4310939857678012e-07:0.999891757965088] [6.3758641033473396e-08:0.99942529201507557] [2.2012382536823415e-16:0.91377133131027222] [6.1310238663736527e-08:0.99955993890762318] [1.1947280942337104e-09:0.97680115699768078] [4.613996651414709e-08:0.99952495098114003] [9.6138980667191936e-16:0.87529611587524414] [5.3102120034509432e-08:0.99950945377349842] [9.2454865807667358e-06:1] [1.4024721661787254e-10:0.9996015429496764] [1.2406942877588034e-12:0.93406075239181519] [1.6611811926026118e-10:0.99965035915374756] [8.7415422123093833e-12:0.99183332920074463] [2.3731777654134589e-10:0.99969851970672596] [2.4622721396527769e-12:0.91202539205551159] [1.0789537041588915e-09:0.99960738420486439] [3.862955782096833e-05:1] [1.5468480940583618e-09:0.99974328279495239] [4.680631936377849e-17:0.96902036666870117] [1.0228704550030443e-09:0.99972432851791382] [1.5722776414150985e-09:1] [3.0037634163836152e-13:0.99983215332031239] [1.585782658369489e-16:0.95625472068786621] [2.6194492538586517e-13:0.99981766939163197] [6.5777559011311995e-15:0.90489566326141357] [5.0259384327955284e-12:0.95525336265563965] [2.3738144933613862e-15:0.90807992219924916] [1.0203397238228716e-08:0.99971061944961559] [4.6154216490955986e-16:0.88560628890991211] [2.0566176799768909e-13:0.88156986236572266] [2.2294224809088405e-15:0.89102703332901001] [1.0269957329001043e-06:0.9998706579208374] [8.1066499209389592e-17:0.88584476709365845] [1.4008110179496635e-15:0.91654175519943237] [6.6547275849932102e-17:0.89844679832458496] [1.2633130097583491e-08:0.97990840673446655] [1.4219760419609439e-14:0.89706689119338989] [5.1121424157936105e-15:0.90372884273529042] [1.889995118417066e-14:0.89746403694152832] [9.2427444542408921e-06:1] [6.2306552459944257e-18:0.89208388328552246] [3.5222350210084574e-12:0.90280348062515259] [3.1342148033597586e-17:0.90185135602951039] [2.1855179124785629e-11:0.99168932437896717] [1.7081488512324689e-18:0.9005889892578125] [7.3125397881054766e-13:0.89870673418045044] [3.6078838992704889e-18:0.90007865428924561] [0.00011511676711961628:1] [5.729095315548663e-19:0.91076487302780162] [1.3581878832924634e-17:0.9577227234840392] [7.8623232879829715e-19:0.91801810264587402] [4.1354586421959993e-10:1] [6.7444171244511104e-21:0.93181627988815319] [9.3739316475285802e-18:0.94907295703887939] [7.6782806100100379e-21:0.93505024909973145] [9.2447371571324766e-06:1] [2.7366915157645e-12:0.94292277097702037] [9.2420305009000003e-06:1] [1.3074136440138773e-08:0.99980229139328003] [9.2444988695206138e-06:1] [2.8369984855260155e-13:0.86908751726150513] [9.2432119345176034e-06:1] [1.066321033249551e-06:0.99987447261810303] [9.2451955424621701e-06:1] [2.3394469785594906e-15:0.88886761665344238] [9.2407526608440094e-06:1] [1.3140837751279832e-08:0.98106592893600464] [9.244587090506684e-06:1] [3.16080127498483e-15:0.90101504325866699] [9.2446580310934223e-06:1] [9.2478230726555921e-06:1] [9.2461741587612778e-06:1] [3.6315502688344381e-11:0.89284461736679077] [9.2428772404673526e-06:1] [6.8868202807159649e-11:0.99055427312850963] [9.2439786385511979e-06:1] [2.4288638591704608e-13:0.89676147699356079] [9.2442523964564333e-06:1] [0.00011840290972031653:1] [9.2476211648317985e-06:1] [2.6968255182433587e-18:0.94915241003036499] [9.2447107817861235e-06:1] [3.13065934287593e-10:1] [9.2460159066831693e-06:1] [8.0267621408675678e-18:0.94569319486618042] [9.2480349849211052e-06:1] [1.4383778890181274e-11:0.92316138744354237] [1.6347516873169152e-12:0.98147177696228038] [9.9216893381659542e-12:0.9176630973815918] [3.7444364275884818e-10:0.99981147050857544] [2.0175720469306487e-11:0.92834120988845836] [1.2231353083147491e-12:0.91623353958129883] [2.0847835610626756e-11:0.92708969116210938] [1.5411673048859598e-09:0.99987494945526123] [3.5130097615632128e-12:0.88916712999343872] [5.3548663983896134e-14:0.91699820756912243] [1.2870900092248894e-12:0.90130150318145763] [5.056549068349625e-10:0.98501104116439819] [4.5856292938198363e-13:0.9006151556968689] [6.2074694343050574e-13:0.91966927051544201] [6.7018965247203622e-13:0.88424074649810791] [9.2455657068057917e-06:1] [3.2909516989787155e-16:0.93161511421203602] [4.2652322883166612e-15:0.91895097494125355] [1.396877502821733e-16:0.92921465635299683] [2.9187771991012745e-12:0.99267852306365956] [1.0993503403076107e-14:0.91371876001358043] [1.2997690082431138e-14:0.93161714076995839] [6.0254515407091175e-14:0.92043012380599976] [1.886069425638404e-11:1] [3.3268184214396701e-12:0.93097549676895142] [4.7569881925701649e-14:0.9175059199333192] [3.8772678644105607e-12:0.94354271888732921] [7.031666915402468e-12:1] [2.5091646617982391e-20:0.94382309913635243] [1.4097734470947814e-16:0.92357271909713756] [6.9704138537931076e-20:0.93845993280410755] [3.9087252878822198e-10:1] [4.5191988172488262e-12:0.98430562019348145] [2.6660529339750388e-10:1] [4.8274045871821169e-10:0.99983108043670643] [5.3391513432643478e-10:1] [1.584011459325463e-12:0.92257672548294078] [8.9065871344828906e-10:1] [1.0929033233963992e-09:0.99986922740936279] [6.7320393704051174e-10:1] [1.8955631064365011e-13:0.92509722709655762] [7.0601108292933645e-10:1] [2.9861452199853039e-10:0.98563355207443237] [5.9184401823841871e-10:1] [1.0645448281568217e-12:0.92695397138595581] [4.3925693637980606e-10:1] [9.2465716079459526e-06:1] [8.4067626991701783e-14:1] [5.6997655937206498e-15:0.92651790380477905] [1.1963834870704071e-13:1] [4.27029375402177e-12:0.99188655614852905] [1.2144342606199008e-12:1] [1.2522496975724951e-14:0.9357781410217284] [2.3710714381480762e-12:1] [1.6038278344288059e-11:1] [6.0316669193982716e-12:1] [3.5186795561666436e-14:0.92033076286315918] [2.6534488582058424e-12:1] [1.5025643923527457e-11:1] [2.400214087813074e-13:1] [7.0798686413434158e-17:0.92233568429946911] [2.4724926966923638e-13:1] [5.4091752778318022e-12:0.86514776945114136] [2.145425113606048e-12:0.98004812002181996] [4.4571872234722143e-12:0.88926881551742554] [1.0913306924820176e-09:0.99984490871429443] [3.8588828313312895e-12:0.89382612705230713] [8.9672046914637815e-13:0.92722004652023315] [3.0800334071406921e-12:0.88025355339050293] [3.2176055153598782e-09:0.99987602233886719] [1.1652776183215809e-12:0.90708768367767323] [2.8420947778377841e-13:0.93800407648086559] [1.3609089983407374e-12:0.92527765035629284] [1.4923146052225886e-10:0.98391908407211293] [2.6785021683267685e-12:0.92004764080047596] [3.051112422609858e-13:0.93828743696212757] [2.4034359571989405e-12:0.91899377107620239] [9.2448426585178822e-06:1] [2.5006833084297025e-13:0.91422969102859497] [8.0013740858669857e-14:0.93356376886367798] [1.2605851963404938e-13:0.91790497303009044] [1.9265151973701933e-10:0.99423581361770641] [6.969384379502952e-14:0.92454487085342396] [2.3971064594548689e-14:0.91550266742706299] [1.6622468646757674e-13:0.92903280258178722] [1.1327098980995489e-11:1] [6.0113663992358152e-14:0.92669129371643078] [1.6016955285951678e-13:0.92085409164428722] [5.8305960157645914e-14:0.9439907670021056] [1.2121242898288642e-09:1] [7.7007211152998066e-21:0.92553025484085083] [2.7431140821006835e-16:0.93644762039184559] [3.0807026826610533e-20:0.92280280590057362] [5.9240540251082052e-10:1] [3.0047622376350169e-12:0.97736996412277222] [6.0896565567958295e-10:1] [6.2297778047337726e-10:0.99980098009109497] [7.5988770831258989e-10:1] [6.5929015719001774e-12:0.92269116640090942] [7.4847361641872112e-10:1] [3.6002427705739133e-09:0.99985599517822277] [2.827356349044408e-09:1] [2.2568577594857947e-13:0.92908847332000721] [3.379980739737221e-09:1] [1.0331402400254321e-10:0.98140728473663319] [3.337284670834606e-09:1] [1.0794153114737635e-12:0.92795175313949585] [3.0404816442342049e-09:1] [9.2430527729447914e-06:1] [1.3996241943203813e-09:1] [7.2281841157015997e-14:0.93415874242782604] [9.3573748749520291e-10:1] [4.0745062879210536e-10:0.99467658996582042] [1.2841444574362979e-09:1] [2.0814428604081992e-14:0.91268861293792725] [1.6871906094451104e-09:1] [1.1846699836393082e-11:1] [4.6770254336081507e-10:1] [6.6671630239226164e-14:0.91405636072158802] [4.2558492840960582e-10:1] [5.7390656671429943e-09:1] [1.025049489733476e-10:1] [1.0597863419017806e-15:0.92109394073486317] [1.091532073060897e-10:1] [6.2576055448460011e-11:0.89408677816390991] [3.4203179568106923e-13:0.96366029977798462] [1.5762967320309684e-11:0.89157557487487793] [7.1215017390102719e-13:0.99987590312957764] [2.5128973554777726e-11:0.91882109642028797] [7.8355121598937955e-15:0.94214832782745361] [1.0321785960665242e-11:0.9205051064491272] [4.6105812501195934e-09:0.9997425675392152] [1.3992129124177496e-13:0.95532572269439697] [2.7028147108658709e-14:0.9015192985534668] [1.4558922914898606e-13:0.9508013129234314] [1.5242894904729694e-14:0.97883486747741699] [1.1967053595903635e-13:0.93204665184020996] [3.3828659969423582e-15:0.9056972861289978] [5.4717101888920184e-14:0.92011201381683361] [9.2434420366771536e-06:1] [7.8234419403954227e-16:0.90630805492401123] [1.0201191833533046e-13:0.95934855937957764] [2.4256056347069807e-16:0.91599357128143322] [2.7975947838702886e-13:0.9975181818008424] [6.8994242861475451e-16:0.9132123589515686] [1.0909865675798322e-14:0.92128157615661621] [1.6886108699793852e-16:0.91378313302993763] [8.2333066146050858e-13:1] [3.3491025642835939e-19:0.9288346767425536] [1.4477152387049744e-13:0.90659290552139282] [6.6077177734084806e-20:0.94208991527557362] [4.2182557902399614e-13:1] [1.3858607408726867e-21:0.93040883541107178] [2.1256081747175748e-13:0.95164263248443592] [1.8084825831244438e-21:0.9285077452659608] [1.5171491721342048e-13:0.99999785423278797] [1.7575496179950132e-12:0.96857476234436035] [1.3544394284522449e-13:0.99999773502349842] [7.873666996172089e-12:0.99988293647766124] [2.8566111607251926e-13:0.99999797344207764] [1.0856269666060809e-14:0.94297677278518677] [2.8392937415251673e-13:0.99999809265136719] [5.4734776711029554e-09:0.9997459053993224] [1.2798351889723152e-14:0.99999916553497314] [4.0553495349142377e-13:0.89294427633285522] [7.9312624583173161e-15:0.99999916553497314] [5.8959056441296882e-14:0.98171550035476685] [4.1378702967851365e-15:0.99999916553497314] [2.9856264758664625e-14:0.89657962322235107] [6.0154691727224308e-15:0.99999916553497314] [9.2450900410767645e-06:1] [7.9939556019083447e-15:0.99999594688415516] [7.3299493644901625e-14:0.95360112190246582] [6.6507752233822045e-15:0.99999606609344482] [5.6990653515831556e-13:0.99722206592559803] [9.4731258495667404e-15:0.9999976158142091] [3.5249180808781146e-15:0.92620623111724842] [1.2916086081259713e-14:0.99999809265136719] [5.7994657253618298e-13:1] [2.2252357833978109e-13:0.99998235702514637] [1.7953780823143364e-13:0.91707402467727661] [1.12044793202596e-13:0.99998021125793457] [1.4436624638791697e-12:1] [1.8124107968001298e-15:0.99998533725738525] [2.6158694893356477e-13:0.95635253190994263] [1.7564476476123936e-15:0.99998509883880615] [8.8474780073847388e-14:0.9610411524772644] [1.0515246442674431e-12:0.96508038043975841] [4.4036191251643759e-13:0.96718621253967285] [2.7315755993934103e-12:0.99989998340606678] [1.8667777827024997e-12:0.96598100662231445] [1.2073823115344581e-13:0.9491611123085022] [6.8722084229852487e-13:0.95725274085998535] [2.3466222298651473e-09:0.99974912405014038] [1.5513855662358661e-14:0.97241508960723877] [1.1592384495905106e-13:0.90359205007553089] [8.073543664665306e-15:0.97306042909622203] [4.7020337113918426e-14:0.98178011178970337] [1.4255762496241295e-15:0.97641968727111816] [2.3492765418024929e-14:0.87091672420501709] [2.2347100840820755e-15:0.97297996282577515] [9.2433438112493604e-06:1] [3.6373305468003988e-19:0.96043443679809559] [8.7380400588742364e-16:0.92068099975585938] [5.4238232765102013e-20:0.9662569761276244] [1.1249732699211699e-12:0.99531364440917958] [2.7498973229471848e-20:0.9638177752494812] [4.0482293624600304e-18:0.92572420835494995] [5.1477449616046665e-20:0.96590572595596325] [3.9710053143958083e-14:1] [7.4586387118798484e-22:0.96559196710586559] [5.9484752193417188e-14:0.90487337112426758] [2.9132004665442686e-22:0.96934288740158081] [6.5519902600185559e-14:1] [6.2778541646785077e-23:0.9580809473991394] [1.0435957518073123e-13:0.94273197650909424] [7.4494508173623038e-23:0.95107370615005482] [2.7107772949085118e-13:0.95644217729568481] [5.5958250186338709e-12:0.99993503093719482] [3.7530398168568457e-13:0.94725394248962402] [2.3710295948831117e-09:0.99975663423538197] [5.8844910281324868e-14:0.89902991056442261] [4.8490630456289596e-14:0.97974318265914917] [1.5751551742083054e-14:0.88356590270996094] [9.2417931227828376e-06:1] [5.9416661332369806e-16:0.90727752447128296] [1.1857364048961649e-12:0.99495995044708241] [4.9684020330665757e-18:0.91744500398635864] [3.2277149296421406e-14:1] [3.1995683636180585e-14:0.90819668769836437] [7.9081550607030399e-14:1] [7.7612788700227864e-14:0.93921256065368641]
tree_sizes=2990 3417 3422 3424 3427 3414 3430 3431 3417 3442 3436 3448 3441 3443 3456 3438 3445 3464 3447 3473 3462 3456 3459 3457 3454 3463 3487 3446 3469 3494 3462 3452 3490 3481 3444 3461 3458 3483 3473 3459 3454 3453 3437 3451 3453 3469 3480 3482 3494 3461 3470 3467 3489 3478 3476 3430 3463 3499 3437 3442 3497 3508 3468 3465 3447 3433 3502 3465 3436 3432 3461 3442 3434 3461 3455 3435 3476 3462 3449 3433 3424 3448 3524 3456 3444 3421 3464 3496 3520 3436 3465 3459 3463 3470 3465 3447 3436 3418 3471 3454 3419 3501 3443 3492 3456 3466 3441 3502

Tree=0
num_leaves=31
num_cat=0
split_feature=248 248 233 344 248 0 16 202 55 417 210 357 469 431 203 227 339 60 279 248 164 16 122 139 223 248 469 42 0 273
split_gain=36883.9 1442.01 1177.74 358.633 193.703 132.025 122.842 93.8421 71.7989 56.1079 53.7655 42.7159 40.317 37.6078 34.746 33.3346 26.3677 23.7816 25.902 23.1401 22.0019 21.7888 21.025 20.6297 21.0371 19.8252 19.4639 19.3789 19.3241 26.4807
threshold=0.73967558145523082 0.98223319649696361 0.4181420654058457 0.44001612067222601 0.1330390200018883 24.500000000000004 0.92406055331230175 0.99696043133735668 0.24594624340534213 0.00021953475516056645 0.36374014616012579 0.63841301202774059 0.53410336375236522 0.07178958505392076 0.0058178480248898276 0.00067837745882570754 0.007993799168616535 0.023783328011631969 0.0018175322911702094 0.20305228233337405 0.31984341144561773 0.51495957374572765 0.35976223647594463 0.0039497050456702718 0.0067421309649944314 0.83102285861969005 0.12205963581800462 0.041781146079301841 24.500000000000004 0.0011294948635622861
decision_type=2 2 2 2 2 2 2 2 2 2 2 2 2 2 2 2 2 2 2 2 2 2 2 2 2 2 2 2 2 2
left_child=2 3 4 6 -1 8 10 15 21 19 25 13 -5 -7 17 16 26 -8 -19 -6 -17 -4 -12 -20 -25 28 -3 -28 29 -2
right_child=1 7 5 12 9 11 14 -9 -10 -11 22 -13 -14 -15 -16 20 -18 18 23 -21 -22 -23 -24 24 -26 -27 27 -29 -30 -31
leaf_value=-0.19428800196017798 -0.074699008177078738 0.11505509018357701 -0.078371993959069255 0.13143046840694331 -0.1498224649672022 -0.069352775997852653 0.11016014675249874 0.19695619286668833 0.11054489426194568 -0.16623287271891141 0.044432447221982301 -0.045887859144086704 0.195249327069764 -0.12243405091212148 0.11239538710315727 0.15677939713853589 0.15618334476409776 -0.024699008177078739 0.094834753880799094 -0.10564306412113467 0.19272204445450022 0.0018925037592607869 0.12925852078045025 -0.052330587124447159 0.10400469552662497 0.033028264550193989 0.089956164236714334 -0.11969900817707874 -0.017657187758874555 0.097443848965778415
leaf_weight=4343 11.999999999999998 15.249999999999998 52.75 181.5 202.5 245.5 71 4215.5 51.25 878.5 53.25 219.75 217.75 292.5 339 602 34 44 77.75 286 237.5 94.25 64.75 23.75 13.499999999999998 330 7.2500000000000027 11.249999999999998 203.25 35
leaf_count=17372 48 61 211 726 810 982 284 16862 205 3514 213 879 871 1170 1356 2408 136 176 311 1144 950 377 259 95 54 1320 29 45 813 140
internal_value=0 1.64057 -1.6709 0.832549 -1.84289 -0.64364 0.572165 1.90343 0.0828937 -1.5146 0.291108 -0.833723 1.65903 -0.985465 0.917064 1.61168 0.936935 0.617057 0.402181 -1.24291 1.66613 -0.272443 0.906445 0.651839 0.039934 0.165973 0.310777 -0.378713 -0.0462885 0.53158
internal_weight=0 6789.25 6666 1666.5 5710 956 1267.25 5122.75 198.25 1367 698.25 757.75 399.25 538 569 907.25 67.75 230 159 488.5 839.5 147 118 115 37.25 580.25 33.75 18.5 250.25 47
internal_count=53821 27157 26664 6666 22840 3824 5069 20491 793 5468 2793 3031 1597 2152 2276 3629 271 920 636 1954 3358 588 472 460 149 2321 135 74 1001 188
shrinkage=1


Tree=1
num_leaves=31
num_cat=0
split_feature=109 78 248 225 228 233 109 233 0 0 272 162 269 227 120 284 210 270 313 124 29 106 248 440 380 468 305 196 283 398
split_gain=30130.8 1456.86 696.404 337.779 122.219 116.174 101.136 92.9964 56.5461 54.3535 53.2175 47.0784 40.9724 33.4697 32.3947 32.0326 30.0401 28.676 27.4184 24.4942 22.4906 20.8235 20.049 18.0968 15.7144 14.7849 14.6732 14.4258 14.6286 14.2551
threshold=0.69161799550056469 0.97410133481025707 0.35220021009445196 0.416433796286583 0.99631190299987804 0.11653691902756692 0.83156764507293712 0.53259494900703441 24.500000000000004 24.500000000000004 0.15694161504507068 0.021773761138319973 0.0016549144056625666 0.00067837745882570754 0.46492591500282293 0.30406501889228826 0.089863903820514693 0.012105146422982218 0.0054738852195441732 0.52863451838493358 0.0064885495230555543 0.52505818009376537 0.20305228233337405 0.018668143078684814 0.12957166880369189 0.031079500913619999 0.0094994460232555884 0.00034111256536562001 0.0047832864802330741 0.0012465171166695657
decision_type=2 2 2 2 2 2 2 2 2 2 2 2 2 2 2 2 2 2 2 2 2 2 2 2 2 2 2 2 2 2
left_child=2 3 5 6 13 -1 9 10 -9 12 -4 22 29 16 18 17 -3 21 -5 25 -18 23 -7 27 -22 -15 -25 28 -8 -2
right_child=1 4 7 14 -6 11 15 8 -10 -11 -12 -13 -14 19 -16 -17 20 -19 -20 -21 24 -23 -24 26 -26 -27 -28 -29 -30 -31
leaf_value=-0.17757720532485938 -0.090634885196768947 0.1337286114766027 -0.082873877722090511 0.060125593573532504 0.17836947635656186 -0.13737056133057468 0.10460138217062083 0.022108337038598616 -0.064777724636706016 -0.020830352137672998 -0.14360503694726437 -0.15941530414697419 0.10781787482263515 0.12343414186846187 0.17502179527307626 0.11372150904859973 -0.090725501085653665 0.085786563118888423 0.15329488536182634 0.17001101774795102 0.12748379305166141 0.12867331589793005 -0.098134461812890816 0.11339707290611195 -0.042311162071722835 0.15550351057220704 -0.008368018902026585 0.035173240794046538 -0.057853324650243246 0.085107306253159987
leaf_weight=4155.4120674580336 17.72865599393845 45.289860934019089 371.06396263837814 57.586248725652695 4274.6814652234316 296.72360961139202 6.7400068193674079 94.682860538363457 358.56045764684677 324.85396341979504 236.09366053342819 722.56340458989143 65.838794827461243 423.28841644525528 211.77966415882111 93.139129862189293 13.462305873632429 185.86995093524456 69.958453461527824 274.81303344666958 16.179929524660114 25.681099340319633 232.10458916425705 47.89946548640728 8.2196344882249814 217.69381707906723 12.473580360412596 455.31100668013096 31.208859473466873 6.2400003224611273
leaf_count=16779 71 182 1489 231 17264 1195 27 379 1437 1300 949 2910 264 1703 854 374 54 745 281 1108 65 103 932 192 33 876 50 1824 125 25
internal_value=0 1.45577 -1.55001 0.623899 1.7101 -1.69533 0.387586 -0.809026 -0.466272 -0.0179421 -1.06489 -1.42822 0.670639 1.39519 1.51043 0.583499 0.787725 0.5161 1.11229 1.45034 0.130348 0.406446 -1.2015 0.365613 0.702839 1.34326 0.882394 0.302361 -0.290001 -0.448822
internal_weight=0 6885.94 6467.2 1612.31 5273.63 5406.8 1272.98 1060.4 453.243 414.661 607.158 1251.39 89.8075 998.947 339.324 858.323 83.1517 765.184 127.545 915.795 37.8619 579.314 528.828 553.633 24.3996 640.982 60.373 493.26 37.9489 23.9687
internal_count=53821 27751 26070 6466 21285 21816 5100 4254 1816 1660 2438 5037 360 4021 1366 3440 334 3066 512 3687 152 2321 2127 2218 98 2579 242 1976 152 96
shrinkage=0.1


Tree=2
num_leaves=31
num_cat=0
split_feature=78 248 233 354 248 0 248 202 78 132 272 357 423 164 207 338 0 339 351 320 469 134 469 129 56 472 248 209 273 120
split_gain=24964.6 1029.59 845.784 255.4 147.098 89.3448 83.9565 71.9527 49.987 48.8541 48.3133 28.3475 28.4162 27.6889 25.9722 24.7085 23.5008 23.2026 22.6453 21.7816 38.0831 23.6456 21.3657 20.3972 19.2276 18.2594 18.195 17.0065 15.9659 15.4647
threshold=0.74030920863151561 0.98223319649696361 0.4181420654058457 0.45089451968669897 0.15969756990671161 24.500000000000004 0.93019646406173717 0.99753993749618541 0.65621206164360057 0.083848528563976302 0.36633110046386724 0.63841301202774059 0.077984977513551726 0.31984341144561773 0.00096101604867726564 0.16680328547954562 24.500000000000004 0.0024021731223911051 6.2887014792067944e-05 0.00077122493530623626 0.12205963581800462 0.00047053556772880262 0.53410336375236522 0.0085915378294885176 0.017393572255969051 0.0035622534342110166 0.046827236190438278 0.00084365622024051856 0.0031810257351025943 0.41715863347053533
decision_type=2 2 2 2 2 2 2 2 2 2 2 2 2 2 2 2 2 2 2 2 2 2 2 2 2 2 2 2 2 2
left_child=2 3 4 6 26 8 10 13 -4 -6 16 12 -7 19 -10 23 18 -12 -2 20 -3 -22 -5 24 -8 -14 -1 -26 -23 -13
right_child=1 7 5 22 9 11 15 -9 14 -11 17 29 25 -15 -16 -17 -18 -19 -20 -21 21 28 -24 -25 27 -27 -28 -29 -30 -31
leaf_value=-0.16679768483955623 -0.070987331085850841 0.12959985106917643 -0.029218219616476415 0.11575748407702456 -0.10336502221620114 -0.05617416031358996 0.10642167813701703 0.16566131505225204 -0.064840523042891868 -0.14490840043630066 -0.038940471226925975 -0.046174896003839339 -0.13566761124365745 0.16294066044278949 0.10288272249873415 0.10941652009143521 0.007828784871940957 0.10662021363718673 0.074952933712545827 0.1325208127631691 -0.12978785722396396 -0.049592591128559939 0.16656290808599314 0.088360978278754651 -0.077361419660651354 -0.082809920649367263 -0.15276218293948335 0.037086481212860477 0.10261997047216359 0.046655172247106358
leaf_weight=3073.9986564517021 11.950190052390097 67.360200107097626 129.3256589025259 141.56027875840664 621.48618717491627 252.84921532869339 37.647958919405937 3973.416340649128 10.980098545551298 519.85322698950768 12.417187035083769 202.07320910692215 103.89265565574169 266.68054139614105 58.010539010167122 171.42963799834251 539.95651459693909 92.736400783061981 96.409727811813354 608.30421580374241 9.6627631187438947 10.554753854870798 199.32752431929111 178.14760573208332 14.211025372147558 176.18040037155151 1320.3421117663383 150.33816100656986 19.853404238820076 19.694906666874886
leaf_count=12726 48 275 519 575 2529 1017 152 16460 44 2131 50 810 421 1101 234 694 2164 375 388 2492 39 43 824 720 57 714 5454 605 81 79
internal_value=0 1.3691 -1.39293 0.683891 -1.54273 -0.522789 0.482594 1.5967 0.0745103 -1.22287 0.26556 -0.679746 -0.804769 1.35437 0.76189 0.778964 0.163579 0.894315 0.588583 1.2519 0.836786 0.0648373 1.45465 0.636895 0.419526 -1.02417 -1.62581 0.272024 0.497866 -0.379308
internal_weight=0 6601.96 6488.69 1646.13 5535.68 953.007 1305.24 4955.83 198.316 1141.34 753.47 754.69 532.922 982.416 68.9906 551.774 648.316 105.154 108.36 715.735 107.431 40.0709 340.888 380.345 202.197 280.073 4394.34 164.549 30.4082 221.768
internal_count=53821 27143 26678 6652 22840 3838 5253 20491 797 4660 3025 3041 2152 4031 278 2228 2600 425 436 2930 438 163 1399 1534 814 1135 18180 662 124 889
shrinkage=0.1


Tree=3
num_leaves=31
num_cat=0
split_feature=78 248 233 344 233 0 16 202 417 55 210 469 309 180 164 233 338 248 351 469 134 273 437 65 407 95 79 200 329 195
split_gain=20885.5 917.527 746.589 219.648 137.436 73.1841 71.3536 67.5803 42.7024 42.2295 33.8191 28.0016 25.3323 25.4523 25.3245 24.8715 31.6966 20.4728 18.762 34.1614 19.6485 15.9183 14.7481 14.5763 13.868 13.7383 13.454 16.1529 13.3437 14.2561
threshold=0.74030920863151561 0.98223319649696361 0.4181420654058457 0.44001612067222601 0.11653691902756692 24.500000000000004 0.92406055331230175 0.99753993749618541 0.00021953475516056645 0.24594624340534213 0.34235498309135443 0.53410336375236522 0.015200147870928051 0.23636093735694891 0.31984341144561773 0.53259494900703441 0.096206273883581175 0.21368643641471866 0.00079421070404350768 0.12205963581800462 0.00047053556772880262 0.0031810257351025943 0.024095179513096813 0.0019759762799367313 0.11344418302178386 0.0079515990801155585 0.00014855342305963862 0.00031777103140484547 0.02311941143125296 0.0090364934876561182
decision_type=2 2 2 2 2 2 2 2 2 2 2 2 2 2 2 2 2 2 2 2 2 2 2 2 2 2 2 2 2 2
left_child=2 3 4 6 -1 9 10 14 17 25 28 -5 13 22 18 16 -7 -6 19 -3 -21 -22 26 -12 -10 -4 -8 -28 -2 -30
right_child=1 7 5 11 8 15 12 -9 24 -11 23 -13 -14 -15 -16 -17 -18 -19 -20 20 21 -23 -24 -25 -26 -27 27 -29 29 -31
leaf_value=-0.15348610432039644 0.002978926441064159 0.11968292037160332 -0.02798084556471462 0.099749977593957567 -0.1138641417827073 -0.050618346091714478 0.15453845181056458 0.15505643263081104 -0.12060094778336815 0.085143845647877747 -0.078817516257180115 0.15426303209096515 0.10678449611777892 0.10497513822249427 0.15215371007086881 -0.047384427023903199 -0.11731570294903418 -0.074849346727331831 0.12233250092767141 -0.12483123561269094 -0.06103894397978319 0.095858573215523324 0.097289355769655528 0.072255687392972195 -0.14582325210534916 0.10508970556844524 -0.060400366579616796 0.03841168790031077 0.13395285600968088 0.0268843435202826
leaf_weight=3908.041994959116 470.15447759628296 66.355362117290497 138.36533218622208 175.93874637782574 279.87584516406059 138.57924227416515 9.296356797218321 3828.0184391140938 547.83436900377274 50.978246957063675 6.7137800455093375 202.892203733325 132.5387357622385 87.043704658746719 257.49337914586067 463.75645130872726 146.6560455262661 258.93336644768715 594.87085944414139 9.3772076815366727 9.8535135090351122 18.811706691980362 45.581256330013275 131.06434652209282 362.06645856797695 8.2192003577947599 17.636525198817253 266.98177421092987 15.190714761614798 68.575560912489891
leaf_count=16779 1886 277 556 726 1172 561 38 16460 2298 208 27 869 543 356 1101 1874 606 1062 2497 38 40 78 186 532 1529 33 71 1082 61 275
internal_value=0 1.27043 -1.29267 0.62236 -1.43734 -0.473949 0.420312 1.49115 -1.17426 0.0674549 0.205581 1.28946 0.685981 0.567324 1.25343 -0.616756 -0.849113 -0.95115 1.1547 0.763699 0.00821369 0.419259 0.443634 0.648941 -1.30637 -0.205194 0.361554 0.322887 0.0953025 0.463008
internal_weight=0 6414.39 6303.31 1629.61 5356.75 946.555 1250.78 4784.78 1448.71 197.563 691.699 378.831 559.078 426.54 956.762 748.992 285.235 538.809 699.269 104.398 38.0424 28.6652 339.496 137.778 909.901 146.585 293.915 284.618 553.921 83.7663
internal_count=53821 27143 26678 6652 22840 3838 5057 20491 6061 797 2781 1595 2276 1733 4031 3041 1167 2234 2930 433 156 118 1377 559 3827 589 1191 1153 2222 336
shrinkage=0.1


Tree=4
num_leaves=31
num_cat=0
split_feature=246 248 248 225 47 202 109 307 0 233 0 269 342 71 227 440 430 183 156 112 116 438 248 17 466 313 446 228 317 243
split_gain=17613.3 1001.21 514.167 220.911 112.57 90.0339 63.7306 54.6095 33.6739 31.0083 30.6836 30.1818 27.861 24.6598 24.0868 22.468 22.4049 22.2822 19.9186 17.5412 17.4745 15.9492 14.6749 13.719 13.5082 13.4614 14.2302 12.6656 12.4562 11.6029
threshold=0.69183245301246654 0.97626876831054699 0.21368643641471866 0.416433796286583 0.48093612492084509 0.9959276318550111 0.83156764507293712 0.049924340099096305 24.500000000000004 0.098454106599092497 24.500000000000004 0.0016549144056625666 0.48495782911777502 0.0009630171407479795 0.00074938518810085963 0.018668143078684814 0.26544733345508581 0.013634314760565759 0.019086496904492382 0.42071403563022619 0.45854359865188604 0.017617408186197284 0.56815609335899364 0.00062968989368528139 0.0022651867475360636 0.0054738852195441732 0.16810055077075961 0.99964702129364025 0.0011453627957962453 0.014807588420808315
decision_type=2 2 2 2 2 2 2 2 2 2 2 2 2 2 2 2 2 2 2 2 2 2 2 2 2 2 2 2 2 2
left_child=2 3 9 6 7 12 8 23 11 -1 22 -2 14 -5 17 16 20 -3 -11 25 29 -19 -6 -4 -23 26 -15 -7 -17 -8
right_child=1 5 4 13 10 27 15 -9 -10 18 -12 -13 -14 19 -16 28 -18 21 -20 -21 -22 24 -24 -25 -26 -27 -28 -29 -30 -31
leaf_value=-0.14566363604084415 -0.044378276819446429 0.10489255865931962 -0.050228791055522914 -0.062458148569277651 -0.04054611765230158 0.13634782110065621 0.018243411536385267 -0.11946550331850676 -0.018112787444502738 -0.10772493029564884 -0.052425917544703861 0.087469862124088735 0.13524871326252372 0.14718863173306168 0.10365903953572411 -0.016981558545049392 0.077237450290885801 0.086790284795340636 -0.13962747972342338 0.13915562458637618 0.095833667481559026 -0.1251561524027209 0.030784467403806689 -0.084760285811974742 0.035941619939752277 0.12146843123247325 0.0061257622935690309 0.14910710220375464 0.083760279225545534 0.060323494618951617
leaf_weight=3553.6377661675215 23.825072765350342 25.778244763612747 176.52213235199451 7.1675517559051505 46.46358434855938 1076.3863865584135 471.81048223376274 493.57419151067734 323.77080430090427 391.36796598136425 472.69289612770081 64.001166164875031 279.93022663891315 9.5714401900768262 503.07077650725842 13.263239920139311 112.6697032302618 9.7710851281881315 391.46150532364845 236.30784337222576 36.189894437789917 14.240758121013643 76.04774971306324 330.3846824914217 8.2031956315040571 48.215328261256218 28.282686039805412 2806.3952771276236 164.45726677775383 76.094303786754608
leaf_count=15971 96 109 734 30 187 4824 1908 2133 1299 1702 1934 263 1228 39 2161 54 467 41 1719 1039 149 59 306 1386 34 203 116 12641 678 311
internal_value=0 1.15903 -1.23836 0.479498 -0.753026 1.39145 0.292318 -0.95789 -0.0321561 -1.41695 -0.40867 0.517027 1.09481 1.20999 0.966241 0.445039 0.364086 0.355989 -1.23678 1.25078 0.285329 -0.198493 0.0373167 -0.727352 -0.662754 0.864267 0.417936 1.4557 0.762419 0.240876
internal_weight=0 6339.4 5932.15 1615.63 1595.69 4723.78 1286.08 1000.48 411.597 4336.47 595.204 87.8262 840.994 329.545 561.064 874.485 696.764 57.9933 782.829 322.377 584.095 32.215 122.511 506.907 22.444 86.0695 37.8541 3882.78 177.721 547.905
internal_count=53821 27749 26072 6652 6680 21097 5225 4253 1658 19392 2427 359 3632 1427 2404 3567 2835 243 3421 1397 2368 134 493 2120 93 358 155 17465 732 2219
shrinkage=0.1


Tree=5
num_leaves=31
num_cat=0
split_feature=16 248 248 354 16 248 202 248 0 117 36 365 164 389 469 476 134 401 152 261 0 88 272 340 248 156 466 148 261 4
split_gain=14942.1 772.661 622.623 174.566 93.1123 75.4316 65.0927 50.671 49.6644 42.8871 36.7959 30.6932 24.286 22.1289 18.4767 18.1059 17.4974 24.8442 17.4123 17.3645 22.0191 17.0023 15.2622 28.6685 14.9663 14.8747 14.4323 14.3859 14.4614 14.2049
threshold=0.73998752236366283 0.98223319649696361 0.35220021009445196 0.45089451968669897 0.1115379184484482 0.56815609335899364 0.99753993749618541 0.93019646406173717 24.500000000000004 0.15963511168956759 0.021849601529538631 0.3785474300384522 0.31984341144561773 0.0039696465246379384 0.53410336375236522 0.011444289702922108 0.0066518953535705813 0.017910668626427654 0.24234739691019061 0.00047787232324481016 24.500000000000004 0.059254815801978111 0.16136165708303454 0.0054548131301999101 0.21368643641471866 0.2007616609334946 0.00054484556312672805 0.03196066431701184 0.028184780851006511 0.24932362884283071
decision_type=2 2 2 2 2 2 2 2 2 2 2 2 2 2 2 2 2 2 2 2 2 2 2 2 2 2 2 2 2 2
left_child=2 3 4 7 -1 9 12 11 18 -4 24 19 16 -13 -5 29 17 22 -7 -2 26 27 -3 25 -6 -24 -21 28 -22 -9
right_child=1 6 5 14 10 8 -8 15 -10 -11 -12 13 -14 -15 -16 -17 -18 -19 -20 20 21 -23 23 -25 -26 -27 -28 -29 -30 -31
leaf_value=-0.13810420588880054 -0.056245121352112883 0.092835864962192177 -0.0492897345122911 0.091401299864102198 -0.099169235571580472 0.021215407424900558 0.13958428819377852 0.040771489266793234 -0.036133484292039747 -0.10102855529641748 -0.121384018451032 -0.010082807976827493 0.13685622392414259 0.096159741455279987 0.14081768003821554 0.087109935840349845 0.11324461395390772 0.11887804029088472 0.12499102671328284 -0.070510670523438637 0.023408319016336259 0.1399468519835014 -0.050936528834888618 0.083657919632244906 -0.064361533604451668 0.084148404706102881 0.070221384594877256 -0.003314265014797254 0.13611364154535013 0.10812498956997824
leaf_weight=3499.374535754323 36.559311479330063 69.627081394195557 396.93737605214119 133.26403453946114 320.70980574190617 96.688462153077126 3463.6371016204357 337.12251317501068 381.20106862485409 268.63996835052967 653.00095671415329 26.240047425031662 235.41261522471905 77.53051932156086 175.05112197995186 161.74309283494949 382.57341228425503 103.31578052043915 19.414896845817566 7.9427846521139136 63.949390068650246 9.3649120479822141 38.96279339492321 52.23671817779541 200.91320227086544 10.307953417301176 88.263039082288742 423.18500718474388 13.850450947880743 34.518689304590225
leaf_count=16574 147 305 1659 575 1431 392 16460 1394 1555 1169 2959 108 1101 327 824 686 1716 461 83 32 257 38 170 232 852 46 362 1702 56 148
internal_value=0 1.11608 -1.13636 0.519079 -1.29927 -0.481574 1.33379 0.356404 -0.186931 -0.701725 -1.05565 0.188283 1.09297 0.692946 1.19458 0.59182 0.994226 0.801553 0.385688 0.106853 0.147194 0.06447 0.56778 0.320448 -0.857624 -0.226754 0.586025 0.0395149 0.434729 0.470274
internal_weight=0 5944.66 5836.88 1588.58 4674 1162.88 4356.07 1280.27 497.304 665.577 1174.62 746.885 892.436 103.771 308.315 533.384 657.024 274.45 116.103 643.115 606.556 510.35 171.135 101.507 521.623 49.2707 96.2058 500.985 77.7998 371.641
internal_count=53821 27147 26674 6656 21816 4858 20491 5257 2030 2828 5242 3029 4031 435 1399 2228 2930 1214 475 2594 2447 2053 753 448 2283 216 394 2015 313 1542
shrinkage=0.1


Tree=6
num_leaves=31
num_cat=0
split_feature=78 473 248 225 16 220 16 117 474 47 389 349 164 468 166 327 458 263 279 175 458 0 4 248 271 336 24 138 459 456
split_gain=12735.6 670.301 632.461 140.131 114.695 66.3741 58.9787 39.5683 36.7563 33.4971 29.6964 27.7642 26.9554 22.5548 22.0543 19.2375 19.0427 17.677 17.4541 18.5528 18.1579 17.2978 16.4595 16.297 16.0362 15.7252 18.5763 15.6479 15.5304 14.9627
threshold=0.76511102914810192 0.38965755701065069 0.98223319649696361 0.45082610845565801 0.1115379184484482 0.99880164861679088 0.63826227188110363 0.37776327133178716 0.00047247011389117693 0.950686275959015 0.00087025787797756504 0.28803019225597387 0.31984341144561773 0.031079500913619999 0.031388837844133384 0.0093477750197052973 0.14784631133079532 0.0015069796354509892 0.023330557160079483 0.1739473640918732 0.10109980031847955 24.500000000000004 0.25420282781124121 0.20305228233337405 0.00058654468739405285 0.0023297399748116736 0.098434679210186019 0.00045769210555590695 0.0010274972883053126 0.00059682209393940877
decision_type=2 2 2 2 2 2 2 2 2 2 2 2 2 2 2 2 2 2 2 2 2 2 2 2 2 2 2 2 2 2
left_child=1 4 3 9 -1 12 10 21 23 11 -3 22 13 18 -5 16 27 -12 19 20 -4 -8 24 -6 -2 26 -18 28 -11 -22
right_child=2 6 5 14 8 -7 7 -9 -10 15 17 -13 -14 -15 -16 -17 25 -19 -20 -21 29 -23 -24 -25 -26 -27 -28 -29 -30 -31
leaf_value=-0.13217857521940088 -0.056374091713595503 -0.011407532931676836 0.10446801020956814 -0.094315188405793879 -0.092692363321778826 0.13511809737538311 0.022333845148586707 0.063785485957491603 -0.11021622637917015 -0.12574625150752236 -0.092375718049710634 0.057989921653508442 0.13151735369379294 0.11850008526836425 0.12179011010022377 0.081730957347773248 0.098579943474050774 -0.052448622119710998 0.11382342786921314 0.10686372272063929 -0.052056364606541276 -0.032096334521508743 0.15976453168812221 -0.05603798413098228 0.01638362068942377 0.029424396029642613 -0.12181167761002293 0.097940868009432955 0.078779786667366791 0.050918597674516709
leaf_weight=3300.8673239201307 31.980787560343742 139.35877180099487 63.289260163903236 4.8122065365314475 254.38711608946323 2983.1860632300377 76.311061710119247 69.575439363718033 783.402308806777 6.9036451131105414 149.98573423922062 191.65835592150688 316.59803378582001 309.10725030303001 253.00664550065994 203.31440320611 5.0973479151725796 425.34446743130684 143.87721395492554 111.21935933828354 15.32396677136421 248.56619542837143 7.6905098110437384 231.85225202143192 574.000472843647 101.41038993000984 15.314939320087431 63.863828778266907 8.0322868227958661 178.20780228078365
leaf_count=16574 129 576 293 20 1179 15053 314 299 3677 28 645 802 1573 1478 1207 881 21 1810 683 524 67 1007 32 1001 2337 428 63 267 33 820
internal_value=0 -1.05431 1.07207 0.508229 -1.22354 1.27281 -0.356937 -0.0465415 -0.968115 0.365525 -0.528251 0.247653 1.06729 0.971703 1.17756 0.600528 0.380837 -0.628574 0.842909 0.727458 0.579707 -0.193111 0.143888 -0.752146 0.125438 0.133054 -0.667756 0.763905 -0.157557 0.42765
internal_weight=0 5679.65 5587.89 1467.09 4570.51 4120.81 1109.14 394.453 1269.64 1209.27 714.689 805.33 1137.62 821.025 257.819 403.937 200.622 575.33 511.918 368.04 256.821 324.877 613.672 486.239 605.981 121.823 20.4123 78.7998 14.9359 193.532
internal_count=53821 27082 26739 6248 22431 20491 4651 1620 5857 5021 3031 3300 5438 3865 1227 1721 840 2455 2387 1704 1180 1321 2498 2180 2466 512 84 328 61 887
shrinkage=0.1


Tree=7
num_leaves=31
num_cat=0
split_feature=78 248 233 356 202 47 248 299 0 248 322 16 351 471 394 273 309 283 187 139 24 299 72 341 17 87 2 195 170 231
split_gain=10885.6 879.248 380.103 169.612 67.7363 59.2753 54.257 46.72 40.0911 28.1812 23.4297 22.7644 22.0629 20.7858 19.4598 16.2127 15.633 14.353 14.029 13.9844 17.9617 14.5941 13.4595 12.6876 11.91 11.9078 11.5521 14.7651 12.7709 14.0287
threshold=0.65621206164360057 0.98223319649696361 0.19408532232046133 0.44579418003559118 0.99753993749618541 0.48093612492084509 0.93019646406173717 0.047491243109107024 24.500000000000004 0.046827236190438278 0.21757742762565613 0.83152654767036449 6.2887014792067944e-05 0.26674060523509985 0.0018510399386286736 0.019185762852430347 0.015200147870928051 0.020703844726085666 0.042066404595971114 0.0097841811366379278 0.29174908995628362 0.0060961607377976188 0.005618336610496045 0.0044420014601200828 0.00062968989368528139 0.01240894850343466 0.002057893900200725 0.00057940874830819688 0.051941482350230231 0.0029078794177621607
decision_type=2 2 2 2 2 2 2 2 2 2 2 2 2 2 2 2 2 2 2 2 2 2 2 2 2 2 2 2 2 2
left_child=2 3 9 6 10 7 8 24 12 -1 15 -10 -2 19 -5 22 18 -11 -8 -13 21 -21 -3 26 -4 -15 -14 -28 -29 -30
right_child=1 4 5 14 -6 -7 16 -9 11 17 -12 13 23 25 -16 -17 -18 -19 -20 20 -22 -23 -24 -25 -26 -27 27 28 29 -31
leaf_value=-0.13023953812581773 -0.058829075554287569 0.050100847532360993 -0.039091446624642874 0.048562369573044689 0.12884430556758683 -0.034949522920238063 0.033424358961807128 -0.10213786244477951 -0.017337806200606494 -0.10279902022142927 0.11975862973664553 -0.0059550861491389235 0.11555375306612788 0.11210963493322584 0.11575272653257568 0.10537870140764727 0.081035580211273037 -0.12502688753306931 0.095743587150933854 0.11309020948223761 0.12625974360123743 0.0038176768367033497 0.091069996956932506 0.085199505703665759 -0.06940619339353167 -0.052375051351985481 -0.078548654296374934 0.12353191701822595 -0.044303900265890567 0.083550650194580051
leaf_weight=2374.7978907823563 16.832591265439987 165.35925456881523 201.1560505926609 51.75268928706646 3060.8893630057573 482.32689696550369 355.66972798109055 437.70251113176346 404.9950767159462 739.56308633089066 283.50045534968376 215.27390091121197 13.173576384782789 31.159891992807388 257.95354689657688 216.48615801334381 119.40033353865147 478.42439207434654 40.206510409712791 14.314750596880911 18.903567165136337 83.61814172565937 155.68758079409599 96.311920270323753 364.32811139523983 5.1252499222755423 13.856506735086439 12.947705969214438 21.158864289522171 14.437803179025648
leaf_count=12726 68 765 880 234 16460 2023 1506 2118 1639 3794 1437 871 54 135 1281 1077 530 2481 176 58 79 339 752 413 1646 22 56 53 87 61
internal_value=0 0.95282 -1.06305 0.372387 1.22003 -0.637579 0.231334 -0.776088 0.0910882 -1.23897 0.964976 -0.00974885 0.504329 0.170137 1.04525 0.842295 0.493196 -1.1153 0.397537 0.0916223 0.370162 0.197899 0.699683 0.611328 -0.586225 0.888763 0.304623 0.124984 0.384869 0.0755317
internal_weight=0 5669.02 5078.3 1787.09 3881.92 1485.51 1477.39 1003.19 962.11 3592.79 821.033 773.391 188.719 368.396 309.706 537.533 515.277 1217.99 395.876 332.11 116.836 97.9329 321.047 171.886 565.484 36.2851 75.5745 62.4009 48.5444 35.5967
internal_count=53821 28153 25668 7662 20491 6667 6147 4644 3935 19001 4031 3143 792 1504 1515 2594 2212 6275 1682 1347 476 397 1517 724 2526 157 311 257 201 148
shrinkage=0.1


Tree=8
num_leaves=31
num_cat=0
split_feature=248 47 109 356 248 233 101 0 47 220 225 156 241 11 272 168 426 187 478 17 116 386 469 448 418 480 3 415 108 410
split_gain=9332.73 595.531 581.321 136.747 99.1221 48.6493 47.286 41.9361 40.0317 32.7324 25.9726 24.4867 18.8542 18.2531 17.8791 15.937 15.7419 17.7207 16.2432 14.8109 13.3385 15.5631 17.0055 19.87 13.1534 13.9611 12.7709 12.5283 12.7866 12.3895
threshold=0.76425412297248851 0.24907971173524859 0.99180042743682872 0.4544313400983811 0.51386114954948436 0.098454106599092497 0.1810837239027023 24.500000000000004 0.950686275959015 0.99880164861679088 0.28012527525424963 0.019086496904492382 0.40424209833145147 0.0075756385922431954 0.42168205976486212 0.050166342407464988 0.2642692923545838 0.0079200314357876795 0.021670597605407241 0.0014803967205807569 0.56002992391586315 0.0052587054669857034 0.12205963581800462 0.0010995370685122909 0.0091025256551802176 0.00060380462673492741 0.0014850745210424068 0.24580340087413788 0.51571649312973034 0.094322018325328841
decision_type=2 2 2 2 2 2 2 2 2 2 2 2 2 2 2 2 2 2 2 2 2 2 2 2 2 2 2 2 2 2
left_child=1 5 3 8 6 -1 -3 12 10 20 27 -7 24 15 -5 -10 17 18 19 -17 21 22 -4 -24 -6 -26 -12 28 -2 -21
right_child=2 4 9 14 7 11 -8 -9 13 -11 26 -13 -14 -15 -16 16 -18 -19 -20 29 -22 -23 23 -25 25 -27 -28 -29 -30 -31
leaf_value=-0.1234276114985101 0.0058735175818403901 -0.051163436935264074 0.10579049137831852 0.078545681116218638 0.16412494066603067 -0.07741849483190516 -0.10239569385716885 -0.029522206629776417 0.058027955348895488 0.12610411358676479 -0.060691319190189934 -0.11274407248422808 0.10048506130514939 0.069834899416734694 0.12363541229595088 0.08999883740249609 0.097212771818602994 0.073890108674444718 0.091568878045702531 -0.12274385917974731 0.12189513711655241 0.1052382168058907 -0.058792625314051966 0.06121774855504334 -0.07852117840624423 0.018308129454531637 0.056412213778215273 0.10188725610142002 0.1189342093382473 -0.028055145795728893
leaf_weight=2792.9971584677696 567.34529210627079 598.81545630097389 67.160219714045525 152.50562730431557 5.4672653377056113 388.72149306535721 257.67711564898491 556.83660115301609 125.09510324895382 2610.5819107741117 9.7637259364128095 396.24509166181087 29.244210481643677 348.86748993396759 207.71999575197697 6.6705461740493766 16.000794067978859 19.70432536303997 9.1459280848503095 23.688668459653854 228.04962289333344 323.94458246231079 16.753168195486069 78.165756553411484 17.087286472320557 115.8154483884573 201.66663518548012 14.529092490673063 10.182566329836844 33.164284035563469
leaf_count=15971 2314 2743 345 739 22 1941 1286 2322 555 15053 40 2097 140 1631 1142 28 75 91 43 102 1263 1731 76 402 69 477 873 61 43 146
internal_value=0 -0.946612 0.963773 0.496556 -0.43548 -1.17246 -0.665767 -0.16322 0.353875 1.20915 0.209183 -0.952506 0.275309 0.553517 1.04546 0.337098 0.0563963 -0.102225 -0.330296 -0.509689 1.01943 0.925807 0.672824 0.400359 0.121122 0.058588 0.510044 0.101742 0.0786692 -0.675087
internal_weight=0 5158.91 5070.71 1746.05 1580.94 3577.96 856.493 724.451 1385.82 3324.66 803.487 784.967 167.614 582.337 360.226 233.47 108.375 92.3738 72.6694 63.5235 714.073 486.024 162.079 94.9189 138.37 132.903 211.43 592.057 577.528 56.853
internal_count=53821 27068 26753 7883 7059 20009 4029 3030 6002 18870 3331 4038 708 2671 1881 1040 485 410 319 276 3817 2554 823 478 568 546 913 2418 2357 248
shrinkage=0.1


Tree=9
num_leaves=31
num_cat=0
split_feature=78 248 47 442 220 248 248 132 0 164 248 350 468 207 85 477 423 378 122 11 401 20 477 340 8 374 480 86 46 371
split_gain=8012.27 775.148 365.874 134.023 72.2289 54.2088 40.5956 36.1563 28.8972 28.3173 23.5354 22.0879 20.9008 19.6337 19.4287 18.5201 18.3141 18.1984 16.4872 16.4215 15.74 17.2111 23.2086 15.8066 14.9379 14.4253 13.7523 17.9788 13.1636 12.7376
threshold=0.65621206164360057 0.98223319649696361 0.16743326187133792 0.46670274436473852 0.99880164861679088 0.43089067935943609 0.8939398229122163 0.083848528563976302 24.500000000000004 0.31984341144561773 0.046827236190438278 0.5026436746120454 0.031079500913619999 0.0061251728329807529 0.0013369266525842252 0.48303492367267614 0.073026493191719069 0.0050776335410773763 0.060366019606590278 0.019452719017863277 0.017910668626427654 0.20629367977380758 0.12747652083635333 0.0070365015417337426 0.27584412693977362 0.0014577265246771278 0.0082049304619431513 0.35448969900608068 0.023167123086750511 0.00010099651262862609
decision_type=2 2 2 2 2 2 2 2 2 2 2 2 2 2 2 2 2 2 2 2 2 2 2 2 2 2 2 2 2 2
left_child=2 3 10 6 9 7 8 -4 14 12 -1 -5 20 15 -2 18 24 -18 -8 -19 21 22 -3 25 -7 -24 -27 -28 -12 -20
right_child=1 4 5 11 -6 16 13 -9 -10 -11 28 -13 -14 -15 -16 -17 17 19 29 -21 -22 -23 23 -25 -26 26 27 -29 -30 -31
leaf_value=-0.12242653667250158 -0.018194028060059316 0.087566101714701805 -0.054020241555146835 0.066653139602363673 0.12249956954650745 -0.020624310322199316 0.05852887048524015 -0.093837827667689527 -0.0075912058994029369 0.11845443710671028 -0.093976048849919488 0.12183463619518678 0.10254320443732785 0.0523986457103933 0.063047856317908796 0.10001443309613765 -0.072991401930998262 -0.0023583173278021634 -0.147339312200884 -0.10600206982784283 0.091577742557389402 0.088920807914022737 -0.097632906935404384 0.055123689015735437 0.12957570265556873 0.031591486849457326 -0.00086202265191513629 -0.23673239514512728 -0.11765583164598965 0.0046364705090947258
leaf_weight=2066.1521796584129 40.094741567969322 61.452609360218048 512.47255651652813 151.12645377218723 2428.0519054532051 327.59008726477623 62.551794871687889 410.9066448956728 590.6281366199255 263.81336076557636 579.37118466198444 139.49275723099709 264.75719453394413 356.55299891531467 110.73334601521492 26.109121829271317 167.76247054338455 88.648880869150162 5.637397736310958 18.472727805376053 168.23266841471195 91.771070763468742 16.560416966676712 54.794283255934715 6.7580047696828833 50.562190234661102 9.8204282820224744 4.8165228664875022 394.67869117856026 253.82230952382088
leaf_count=12726 165 312 2444 726 15053 1377 268 2191 2405 1573 3330 815 1478 1598 480 117 760 393 23 82 909 493 74 281 28 245 48 25 2337 1065
internal_value=0 0.855639 -0.963019 0.311721 1.13229 -0.564628 0.187189 -0.717392 0.0238508 0.904123 -1.16385 0.931394 0.801768 0.359053 0.414513 0.190124 -0.333093 -0.524309 0.124446 -0.202313 0.672478 0.531228 0.365313 0.135643 -0.175884 -0.142882 0.0688111 -0.784789 -1.03571 0.0133442
internal_weight=0 5151.38 4572.81 1736.75 3414.63 1532.61 1446.13 923.379 741.456 986.581 3040.2 290.619 722.767 704.674 150.828 348.121 609.232 274.884 322.012 107.122 458.01 289.778 198.006 136.554 334.348 81.7596 65.1991 14.637 974.05 259.46
internal_count=53821 28153 25668 7662 20491 7275 6121 4635 3050 5438 18393 1541 3865 3071 645 1473 2640 1235 1356 475 2387 1478 985 673 1405 392 318 73 5667 1088
shrinkage=0.1


Tree=10
num_leaves=31
num_cat=0
split_feature=248 248 109 356 248 252 233 220 0 132 75 180 47 414 272 97 17 434 116 386 469 247 201 108 370 225 121 248 434 119
split_gain=6891.92 544.109 540.65 113.872 82.1443 42.982 38.1261 35.137 33.1299 29.9552 23.6813 23.2601 23.0059 20.1944 17.8715 17.1734 16.175 13.7491 13.3357 13.8531 14.9211 16.0816 12.9798 17.984 16.1912 12.7012 12.2412 12.24 12.2292 11.8249
threshold=0.76425412297248851 0.21368643641471866 0.99180042743682872 0.4544313400983811 0.51386114954948436 0.1394402161240578 0.098454106599092497 0.99880164861679088 29.500000000000004 0.39915233850479132 0.0013905247906222942 0.43004474043846136 0.950686275959015 0.015877472236752514 0.42168205976486212 0.094286348670721068 0.00062968989368528139 0.069371562451124205 0.56002992391586315 0.0052587054669857034 0.12205963581800462 0.0061465599574148664 0.0092109884135425108 0.16101963818073275 0.43284867703914648 0.15916072577238086 0.027081687003374103 0.35220021009445196 0.3543804287910462 2.00166168724536e-05
decision_type=2 2 2 2 2 2 2 2 2 2 2 2 2 2 2 2 2 2 2 2 2 2 2 2 2 2 2 2 2 2
left_child=1 6 3 9 5 16 -1 18 11 12 -11 -6 -2 29 -5 25 17 -3 19 20 -4 26 23 -14 -25 -10 -22 -18 -28 -8
right_child=2 4 7 14 8 -7 13 -9 15 10 -12 -13 22 -15 -16 -17 27 -19 -20 -21 21 -23 -24 24 -26 -27 28 -29 -30 -31
leaf_value=-0.11628302898950225 0.012224081564794147 -0.014003734029225643 0.096722321190255423 0.068781168384513841 0.0012681471912481485 -0.096221651456389556 0.10498545945844749 0.1193555458625961 -0.025503305447890302 -0.096937203974609976 0.074360170883806406 0.10965343154872718 0.050955838836534317 -0.10620713718015368 0.11601943874332549 -0.064593979132353985 -0.070616565943940862 -0.14594219709541831 0.1142422786602694 0.095915159359269753 0.068283954437743613 0.089088497031134972 0.059699458256454223 -0.017636721228248033 0.091567530409942491 0.065517879535240783 -0.05002248177700315 -0.040040386788650947 0.12871823179917682 -0.071683365507062988
leaf_weight=2422.4228254109621 713.61182604730129 167.54301923513412 61.188489109277725 142.83989745378494 339.82899715006351 230.94309312105179 3.8387661129236212 2251.8709424138069 208.83096906542778 8.4541011899709684 177.90308304131031 21.025279402732849 132.0528414696455 301.81585288047791 182.30698318779469 128.81805221736431 260.97298693656921 8.2890040427446348 200.36612318456173 290.7019532173872 18.447731286287308 32.432832762598991 204.47508622705936 100.87848365306854 15.68834066390991 16.545249342918396 34.986095532774925 262.72240595519543 4.2980827987194052 289.87445957958698
leaf_count=15971 2949 759 345 739 1433 1270 22 15053 872 36 886 106 606 1799 1142 550 1358 39 1263 1731 97 181 1002 449 74 69 175 1220 25 1600
internal_value=0 -0.854879 0.872867 0.421293 -0.392293 -0.588156 -1.1071 1.13471 -0.137421 0.2936 0.665893 0.0758325 0.234134 -0.880413 0.952672 -0.354685 -0.464663 -0.202235 0.928418 0.831418 0.586081 0.327426 0.410362 0.256868 -0.0293928 -0.188213 0.0108838 -0.552774 -0.304665 -0.693743
internal_weight=0 4663.47 4572.5 1678.21 1645.52 930.471 3017.95 2894.29 715.049 1353.06 186.357 360.854 1166.71 595.529 325.147 354.194 699.527 175.832 642.421 442.055 151.353 90.1647 453.095 248.62 116.567 225.376 57.7319 523.695 39.2842 293.713
internal_count=53821 27068 26753 7883 7676 4646 19392 18870 3030 6002 922 1539 5080 3421 1881 1491 3376 798 3817 2554 823 478 2131 1129 523 941 297 2578 200 1622
shrinkage=0.1


Tree=11
num_leaves=31
num_cat=0
split_feature=78 109 248 356 233 248 220 132 0 248 402 74 227 423 37 287 351 8 81 366 166 382 56 469 448 287 137 360 231 24
split_gain=5924.1 699.769 353.767 129.834 45.6166 45.4792 36.9052 33.6103 25.3712 24.027 18.5514 18.3168 17.8419 15.9373 16.9701 15.3605 14.2909 14.2462 13.8602 16.0969 13.6146 14.1593 13.2837 13.1726 19.4432 13.034 12.7601 11.9621 11.7198 11.6755
threshold=0.65621206164360057 0.99180042743682872 0.15969756990671161 0.4544313400983811 0.4181420654058457 0.93019646406173717 0.99880164861679088 0.11446761339902879 24.500000000000004 0.046827236190438278 0.0020121835405007009 0.12971070408821109 0.00031084111833479261 0.073026493191719069 0.0021156701259315018 0.058867340907454498 7.170074241003023e-05 0.26348441839218145 0.00031220108212437486 0.26352798938751226 0.28713046014308935 0.0096655599772930163 0.019981388933956627 0.12205963581800462 0.0010995370685122909 0.010667914524674417 0.0062911643180996188 0.48827983438968664 0.00098026578780263684 0.11279552429914476
decision_type=2 2 2 2 2 2 2 2 2 2 2 2 2 2 2 2 2 2 2 2 2 2 2 2 2 2 2 2 2 2
left_child=2 3 9 5 7 8 20 18 12 -1 -5 15 -2 17 -15 28 -17 -6 25 -20 21 23 26 -3 -25 -4 -11 -10 -7 -18
right_child=1 6 4 10 13 11 -8 -9 27 22 -12 -13 -14 14 -16 16 29 -19 19 -21 -22 -23 -24 24 -26 -27 -28 -29 -30 -31
leaf_value=-0.1164682472121082 -0.054703519448677011 0.096900219450885533 -0.094752695142737708 0.026092423303223256 -0.017662055641141733 0.029405909562316868 0.11658554983752208 -0.091573650807768567 -0.0038475520160031621 -0.0864871042196102 0.097793648600917438 0.063024084010987774 0.049900781580466513 -0.07379554767865508 -0.02448846369345015 -0.10884620140682447 0.04974469069738402 0.10881370680537171 -0.061976544698124247 0.12667697514080759 0.11023947681548285 0.096363184721097825 -0.11035199281599606 -0.058498284819236503 0.055945275067445434 -0.014319514625003901 0.072144179754627072 0.071384904319613848 0.096503138133716498 0.0097876140154362599
leaf_weight=1778.0764397084713 18.083889544010162 63.552873507142067 23.430333241820335 41.187386393547058 343.00718423724174 53.194980293512344 2083.4913891255856 290.77205140888691 748.49796842038631 463.40205244719982 291.26538030803204 229.43773192167282 165.83255372941494 124.92406226694584 158.19241954386234 8.586580276489256 104.34279617667198 9.143471032381056 398.6678301692009 4.5747409611940375 196.48989680409431 210.58628165721893 357.20423464477062 16.93177330493927 120.45887008309364 143.76276206970215 5.1268941015005103 21.748926341533661 50.980718925595284 244.4523379355669
leaf_count=12726 74 376 120 219 1461 241 15053 1737 3070 3000 1789 1165 730 601 728 36 483 38 2084 24 1339 1330 2420 77 695 695 34 95 243 1138
internal_value=0 0.770756 -0.87654 0.319121 -0.489085 0.203939 1.1026 -0.639036 0.0624482 -1.09922 0.889106 0.399317 0.396154 -0.285801 -0.46245 0.284527 0.186033 -0.143782 -0.497992 -0.598363 0.885837 0.782439 -0.958259 0.59255 0.418415 -0.255914 -0.847513 -0.0172327 0.622414 0.217409
internal_weight=0 4669.12 4100.28 1977.61 1496.47 1645.16 2691.51 861.208 954.163 2603.81 332.453 690.995 183.916 635.267 283.116 461.557 357.382 352.151 570.436 403.243 608.02 411.53 825.733 200.944 137.391 167.193 468.529 770.247 104.176 348.795
internal_count=53821 28153 25668 9283 7488 7275 18870 4660 3969 18180 2008 3306 804 2828 1329 2141 1657 1499 2923 2108 3817 2478 5454 1148 772 815 3034 3165 484 1621
shrinkage=0.1


Tree=12
num_leaves=31
num_cat=0
split_feature=248 16 233 168 47 353 140 248 228 0 117 275 97 344 283 136 9 0 272 310 17 134 288 56 34 87 205 320 468 155
split_gain=5104.89 505.682 498.338 99.2089 65.9057 39.7289 37.6474 36.2295 27.8171 22.7614 21.3731 17.7014 17.1222 17.0331 15.7653 14.7985 14.1992 16.2838 14.6001 14.126 13.1576 13.0461 13.3819 13.974 15.5347 12.1889 12.8391 11.9409 11.6517 12.3264
threshold=0.76425412297248851 0.99384894967079174 0.19408532232046133 0.34761683642864233 0.48093612492084509 0.13158304244279864 0.97110140323638927 0.046827236190438278 0.99964702129364025 29.500000000000004 0.39877843856811529 0.0011839980143122377 0.094286348670721068 0.45765732228755956 0.020703844726085666 0.082365941256284728 0.0072656935080885896 29.500000000000004 0.084960803389549269 0.31271871924400335 0.00062968989368528139 0.064328014850616469 0.40593482553958898 0.30682006478309637 0.30591617524623876 0.00029654063109774148 0.00088794532348401855 0.0019312596996314826 0.024185900576412681 0.021228965371847156
decision_type=2 2 2 2 2 2 2 2 2 2 2 2 2 2 2 2 2 2 2 2 2 2 2 2 2 2 2 2 2 2
left_child=2 3 7 6 5 20 10 -1 19 13 21 -12 15 -6 -9 25 17 18 -8 28 -4 22 23 24 -2 -11 -27 -20 29 -3
right_child=1 8 4 -5 9 -7 16 14 -10 12 11 -13 -14 -15 -16 -17 -18 -19 27 -21 -22 -23 -24 -25 -26 26 -28 -29 -30 -31
leaf_value=-0.11394366659033371 0.010420179292885563 0.050008575757250755 -0.020320461258554523 0.098022778365735475 -0.0026466550998191451 -0.09487301011424587 0.11815056117250584 -0.078810574555048765 0.11636935094661971 0.063583111959689964 -0.12885104329251873 0.066715288391574187 -0.059013698510540384 0.078974539476587391 -0.10590450618698262 0.063908228223661684 0.064507189217519065 0.056353115845073791 -0.066201744296148932 0.11229615352052061 -0.051278306182575541 0.098512665938620306 0.11337029893183835 -0.038568455190861613 0.11196316264251834 -0.11163300693131735 -0.021690471937019076 0.017997892664097404 0.098365936038408208 0.094810179213701495
leaf_weight=1642.682857722044 793.87264882028103 148.59194453060627 191.17651039361954 235.71660995483398 373.60910059511662 184.63893665373325 8.4222239255905134 566.10071386396885 1613.2611424028873 15.253531247377394 4.8357949852943412 107.85942299664021 139.83334848284721 27.445739418268204 346.04068210721016 21.53614616394043 301.96791203320026 93.152234852313995 31.70365172624588 264.34153953194618 487.05633115768433 17.144440799951553 12.450552701950071 57.750399023294449 15.357663959264753 17.261365339159966 197.03768210113049 35.93222314119339 270.68776777386665 104.67007081210613
leaf_count=12726 3359 949 903 1561 1596 1146 44 3794 12641 64 20 529 621 145 2481 91 1686 488 142 1978 2595 78 61 257 70 73 833 189 1959 742
internal_value=0 0.792222 -0.773791 0.377672 -0.346288 -0.537478 0.281733 -1.0507 1.08846 -0.137983 0.172775 0.583235 -0.309695 0.02939 -0.890892 -0.153514 0.515123 0.28322 -0.0600912 0.934498 -0.425521 0.121182 0.10434 0.0895573 0.123473 -0.227874 -0.289352 -0.214699 0.839415 0.685245
internal_weight=0 4117.72 4209.67 1716.17 1654.85 862.872 1480.45 2554.82 2401.55 791.977 1009.27 112.695 390.922 401.055 912.141 251.089 471.178 169.21 76.0581 788.291 678.233 896.576 879.431 866.981 809.23 229.553 214.299 67.6359 523.95 253.262
internal_count=53821 26753 27068 8484 8067 4644 6923 19001 18269 3423 4374 549 1682 1741 6275 1061 2549 863 375 5628 3498 3825 3747 3686 3429 970 906 331 3650 1691
shrinkage=0.1


Tree=13
num_leaves=31
num_cat=0
split_feature=78 16 248 458 47 353 228 228 248 308 11 0 124 62 180 50 97 310 241 273 136 17 248 56 426 168 444 209 449 186
split_gain=4384.91 488.145 481.762 92.7155 65.5097 36.964 31.3291 29.5217 29.1092 20.0014 19.5631 18.205 16.6929 17.697 15.2872 15.1055 14.9311 14.3878 14.2993 13.3485 13.2357 12.9947 14.048 12.2035 14.7109 13.4357 11.7707 11.388 11.0174 10.7574
threshold=0.76511102914810192 0.99384894967079174 0.16711191833019259 0.4943027943372727 0.48093612492084509 0.13158304244279864 0.95439934730529796 0.99964702129364025 0.046827236190438278 0.071994278579950347 0.0071624480187892914 29.500000000000004 0.39030081033706671 0.32496067881584173 0.43004474043846136 0.073634460568428053 0.094286348670721068 0.31271871924400335 0.35540531575679785 0.022851637564599517 0.082365941256284728 0.00062968989368528139 0.35220021009445196 0.026103843003511432 0.2642692923545838 0.051936175674200065 0.04158777371048928 0.00084365622024051856 0.0021035592071712021 0.22459606826305392
decision_type=2 2 2 2 2 2 2 2 2 2 2 2 2 2 2 2 2 2 2 2 2 2 2 2 2 2 2 2 2 2
left_child=2 3 8 6 5 21 12 17 -1 -5 19 14 13 -2 -6 -10 20 26 -14 23 -13 -4 -23 -8 25 27 -3 -25 -27 -24
right_child=1 7 4 9 11 -7 10 -9 15 -11 -12 16 18 -15 -16 -17 -18 -19 -20 -21 -22 22 29 24 -26 28 -28 -29 -30 -31
leaf_value=-0.11167091404505931 0.0085130342606862756 0.06973528589020693 -0.021482629476221649 0.019007008104056852 -0.0019532212578466969 -0.090957283072065936 0.058190878493440158 0.11431533063571475 -0.079553126502149518 0.10088790334756513 0.055219411378730057 -0.020512995727553825 0.011970234824762968 -0.099420928366277833 0.088110880363483884 -0.1119422619198982 -0.054319150587952975 0.10972188538440314 0.078097016029722466 0.11533917445110164 0.060202995993761971 -0.063290260413486246 -0.033153933562727264 -0.093710787167859938 0.092617838365317562 0.059797864514878563 0.10302499054783654 0.033885782452591572 -0.06194526487137593 0.11938102727077829
leaf_weight=1515.0591697543859 683.96977233886719 341.76899663358927 225.89077389240265 34.430344015359879 382.08548371493816 189.59568785130978 40.783371478319168 1484.6182832047343 570.78940317779779 223.42076104879379 394.57814713567495 229.31265750527382 65.395924851298332 15.535912439227102 19.823996916413307 192.57093596458435 137.73563285171986 244.51010176539421 65.407333292067051 12.833585932850836 22.290239840745926 318.44868782162666 197.32304853200912 7.9819172769784918 14.276819571852682 8.5436603575944883 154.10737633705139 56.554806604981422 57.202559143304825 4.7344167828559867
leaf_count=12726 2876 2445 1113 181 1638 1257 202 12641 4141 1553 2201 974 289 67 110 1515 622 1978 339 73 93 1879 988 34 78 38 1205 273 266 26
internal_value=0 0.754539 -0.734524 0.34781 -0.336216 -0.515275 0.247838 1.06181 -1.03648 0.899545 0.423446 -0.124401 0.122472 0.0611584 0.0248915 -0.877238 -0.278514 0.898698 0.450365 0.167103 -0.133621 -0.415118 -0.502041 0.0988105 -0.0374817 -0.143083 0.80081 0.181046 -0.461249 -0.295799
internal_weight=0 3905.92 4005.66 1680.91 1727.24 935.993 1423.06 2225 2278.42 257.851 592.755 791.248 830.309 699.506 401.909 763.36 389.339 740.386 130.803 198.177 251.603 746.397 520.506 185.343 144.56 130.283 495.876 64.5367 65.7462 202.057
internal_count=53821 26739 27082 8470 8700 5263 6736 18269 18382 1734 3165 3437 3571 2943 1748 5656 1689 5628 628 964 1067 4006 2893 891 689 611 3650 307 304 1014
shrinkage=0.1


Tree=14
num_leaves=31
num_cat=0
split_feature=16 16 248 124 78 233 228 225 380 248 393 0 335 298 374 269 424 272 395 356 341 317 294 341 138 148 179 150 444 308
split_gain=3772.39 621.893 312.968 107.082 36.789 34.2568 31.4361 30.9696 21.4089 19.4227 17.539 17.1164 15.3807 14.8287 14.6528 12.8854 15.0136 14.5452 16.3674 14.4826 14.2893 14.6095 14.126 12.605 15.4244 14.5463 12.3969 18.0384 16.1182 13.0539
threshold=0.63826227188110363 0.99384894967079174 0.1330390200018883 0.49434255063533789 0.97410133481025707 0.4181420654058457 0.99964702129364025 0.093786597251892104 0.40019939839839941 0.046827236190438278 0.0010948474518954756 24.500000000000004 0.0008802279771771283 0.27628572285175329 0.0032575704390183096 0.0049677409697324046 0.068142678588628783 0.36633110046386724 0.0046799208503216514 0.27383725345134741 0.0033408453455194835 0.0029178814729675655 0.42156702280044561 0.017860042862594131 0.0077553791925311097 0.0956450290977955 0.027005914598703388 0.00022920854098629209 0.00032068984000943607 0.0018855678499676289
decision_type=2 2 2 2 2 2 2 2 2 2 2 2 2 2 2 2 2 2 2 2 2 2 2 2 2 2 2 2 2 2
left_child=2 3 9 4 8 7 13 -4 15 -1 12 -5 -7 -3 -10 16 19 18 -17 20 26 -22 -20 24 25 -6 29 -28 -29 -2
right_child=1 6 5 11 23 10 -8 -9 14 -11 -12 -13 -14 -15 -16 17 -18 -19 22 -21 21 -23 -24 -25 -26 -27 27 28 -30 -31
leaf_value=-0.10960393730733242 -0.071546439683582916 0.073927211358747025 -0.040656407490915605 0.1092838456208293 0.064776181241822772 -0.015828456605908113 0.11249105006032363 -0.079617991195184659 -0.070198321143864234 -0.087767374636404813 -0.032320020706821016 0.059935673888258871 0.057385426237621273 0.10349758693040037 0.048100582756975534 0.056294801585649284 -0.031435812536347474 0.06653129321062401 0.00068104940627189035 0.12841138555884093 0.065857084184552703 -0.014356170692311246 0.10873325593397117 0.072253929656543356 0.06017293578841857 -0.0084351296243881744 -0.08930168744790179 0.038238260476334496 -0.023268361261837497 0.05954480206891305
leaf_weight=1395.4115059822798 9.2799023836851102 402.9971286803484 580.28386203944683 130.7303372323513 36.518040344119072 81.244903162121773 1364.0045067965984 314.63411265611649 11.152684673666952 575.2404787838459 441.67587618529797 152.01816433668137 44.361466258764267 292.79992320388556 171.11955246329308 66.459150820970535 170.76814047992229 49.036572203040123 478.27622149884701 9.1138169318437559 58.660214871168137 37.045734331011772 12.413090437650679 113.598692715168 110.50988531112671 105.66869445890188 31.302335888147354 56.128154948353767 176.85507367551327 41.865048483014107
leaf_count=12726 39 3103 3288 999 195 347 12641 2180 51 4646 2083 970 192 2525 862 280 722 234 2058 40 248 155 62 711 657 540 128 231 735 173
internal_value=0 0.649631 -0.772209 0.256617 0.164152 -0.42168 1.03668 -0.543545 0.0893482 -1.0323 -0.229432 0.827521 0.100291 0.863708 0.408622 0.0407393 -0.0643279 0.143178 0.0972227 0.0372716 0.00963237 0.348082 0.0341447 0.445865 0.321487 0.103678 -0.093058 -0.180268 -0.0845076 0.357592
internal_weight=0 4088.32 3432.85 2028.52 1745.77 1462.2 2059.8 894.918 1379.48 1970.65 567.282 282.749 125.606 695.797 182.272 1197.2 591.018 606.185 557.148 420.25 411.136 95.7059 490.689 366.295 252.697 142.187 315.431 264.286 232.983 51.145
internal_count=53821 28359 25462 10090 8121 8090 18269 5468 6018 17372 2622 1969 539 5628 913 5105 2471 2634 2400 1749 1709 403 2120 2103 1392 735 1306 1094 966 212
shrinkage=0.1


Tree=15
num_leaves=31
num_cat=0
split_feature=78 202 248 318 248 78 248 415 228 343 120 56 471 34 101 40 275 128 48 5 197 160 364 405 374 448 441 289 304 17
split_gain=3238.77 457.822 442.873 86.3087 49.9549 29.6013 29.2402 29.0717 21.3445 18.6408 17.8828 15.64 15.2065 14.8184 14.622 14.2984 13.1916 13.234 12.9998 12.8903 12.4028 12.4779 12.2947 14.048 15.1393 15.0072 13.4273 11.9573 11.7719 13.7609
threshold=0.76511102914810192 0.9959276318550111 0.15969756990671161 0.52123099565505993 0.43089067935943609 0.97410133481025707 0.046827236190438278 0.15597485005855563 0.99964702129364025 0.25791394710540777 0.36658875644207006 0.30054415762424475 0.011870301328599455 0.30591617524623876 0.53668156266212474 0.36868207156658178 0.020410091616213325 0.26744583249092108 0.018477387726306919 0.0022255104267969732 0.00010074230522150175 0.0019138614297844472 0.28833341598510748 0.010595336090773346 0.00623650522902608 0.0051604567561298617 0.0037229844601824884 0.089375615119934096 0.16752793639898303 0.00062968989368528139
decision_type=2 2 2 2 2 2 2 2 2 2 2 2 2 2 2 2 2 2 2 2 2 2 2 2 2 2 2 2 2 2
left_child=2 3 6 5 7 10 -1 28 16 -5 11 13 -8 20 18 -13 17 22 -6 -20 21 -2 -3 24 -24 -26 -27 -22 29 -4
right_child=1 8 4 9 14 -7 12 -9 -10 -11 -12 15 -14 -15 -16 -17 -18 -19 19 -21 27 -23 23 -25 25 26 -28 -29 -30 -31
leaf_value=-0.10770453757279193 0.0092254064003301148 0.088672644770136477 -0.019756989473821776 0.093672970445883699 0.017865449201517607 0.044092731672322236 -0.068823396410880214 -0.089690125933212128 0.11085977787019163 -0.15049467619574958 0.038815211818434218 -0.03447210143955947 -0.099868154218599292 0.12042049493906642 0.09761182095901122 -0.2269500479878313 0.10183753658515038 0.098201154161627835 -0.050416988075776749 -0.013639212797597541 0.0078298466787183035 -0.17596540507139558 0.02883810765808334 0.073324810106821223 -0.23752511909837831 -0.21021654677988344 0.049520435811317653 0.10259927729685513 0.063551364952281253 -0.050695169373501284
leaf_weight=1283.7498220950365 7.2518427520990354 57.122770600020885 215.75087711215019 216.72330921143293 109.90840275585651 465.09779381006956 381.05538389831781 134.21548165380955 1251.4324336722493 3.1724847182631484 224.14983936399221 21.294388875365261 269.27702298760414 11.853272572159765 11.82184501737356 4.7137803733348838 288.13881424069405 103.93940344452858 111.07958364486694 670.86467078328133 756.93254582583904 7.3016676157712936 38.948914341628551 42.072647623717785 4.7038780078291884 2.7337758243083936 7.3185545802116394 13.552026510238646 11.086543925106524 430.89889962226152
leaf_count=12726 31 465 1118 1728 468 2856 3069 1019 12641 20 1128 92 2385 55 77 22 2654 947 517 2992 3246 30 286 359 33 21 59 66 71 2640
internal_value=0 0.682967 -0.662468 0.316125 -0.28941 0.231 -0.989531 -0.47276 1.03667 0.901503 0.13775 0.0695428 -0.816778 0.0944486 -0.128728 -0.693572 0.871487 0.706698 -0.143373 -0.188637 0.0776925 -0.83687 0.519544 0.300553 -0.0384215 -0.901015 -0.211162 0.0949674 -0.386211 -0.403728
internal_weight=0 3528.45 3629.71 1732.04 1695.63 1512.15 1934.08 791.952 1796.41 219.896 1047.05 822.9 650.332 796.891 903.675 26.0082 544.979 256.84 891.853 781.944 785.038 14.5535 152.901 95.7778 53.7051 14.7562 10.0523 770.485 657.736 646.65
internal_count=53821 26739 27082 9274 8902 7526 18180 4848 17465 1748 4670 3542 5454 3428 4054 114 4824 2170 3977 3509 3373 61 1223 758 399 113 80 3312 3829 3758
shrinkage=0.1


Tree=16
num_leaves=31
num_cat=0
split_feature=16 202 233 477 228 248 390 228 252 424 0 466 11 233 336 469 337 275 474 358 416 128 200 303 11 364 405 380 227 235
split_gain=2782.9 562.606 301.267 100.307 34.1724 33.4255 31.5257 22.617 22.3816 19.3211 18.3883 22.5852 17.7599 15.8375 15.2241 16.1014 13.4256 13.1707 13.0994 13.0112 15.6988 12.7791 12.5729 13.8921 12.0256 11.2349 12.2155 12.8218 12.7921 10.8658
threshold=0.63826227188110363 0.9959276318550111 0.11653691902756692 0.48303492367267614 0.95439934730529796 0.31526251137256628 0.00031684640271123504 0.99964702129364025 0.19147846847772601 0.066051483154296889 24.500000000000004 0.0039336152840405711 0.0071624480187892914 0.030467771925032142 0.00016251629858743402 0.095255292952060713 0.02255603484809399 0.020410091616213325 0.00054008056758902978 0.23824085295200351 0.24442470818758014 0.26744583249092108 0.0046084376517683276 0.31897407770156866 0.0066132009960711011 0.28833341598510748 0.010595336090773346 0.51167741417884838 0.016138920560479168 0.0035590110346674923
decision_type=2 2 2 2 2 2 2 2 2 2 2 2 2 2 2 2 2 2 2 2 2 2 2 2 2 2 2 2 2 2
left_child=2 3 13 4 10 6 29 17 -7 -5 11 14 16 -1 -2 -16 19 21 -17 24 -21 25 -10 -24 -6 -3 27 28 -27 -4
right_child=1 7 5 9 12 8 -8 -9 22 -11 -12 -13 -14 -15 15 18 -18 -19 -20 20 -22 -23 23 -25 -26 26 -28 -29 -30 -31
leaf_value=-0.10724854072646482 -0.1221570991974834 0.085263842081231736 -0.030670089005354079 0.0093789501152082289 0.035882994684620577 -0.015593629333928789 -0.073226664231467273 0.10939094695958265 -0.07413723465250209 0.086865071751779113 -0.0014438621608416739 0.07251914417324172 0.045774199493463043 -0.086498998906249291 0.067405123650624538 -0.11263209936187424 0.095913684036638136 0.099447984063327027 0.005038076595912171 -0.041820350272544757 0.07142591796955429 0.095582345246952805 -0.059706100199367701 0.043740346557049142 -0.1301613765409427 0.024150774290801938 0.069834610833140159 -0.17591965593982956 -0.17867322750079356 0.15453253745500173
leaf_weight=1050.0408589839935 8.728217735886572 53.647566132247448 268.15368146449327 36.719805128872395 91.939536467194557 651.5362938195467 375.17321499437094 1146.7692660987377 119.26123901456594 260.2712669968605 955.4059254899621 81.239223822951317 406.24920389801264 566.20057552307844 39.197818711400032 10.876236379146574 16.63869309425354 266.66458734869957 72.683763042092323 79.180715397000313 14.479488104581831 96.493919223546982 30.471874691545963 22.617423221468925 4.5789485275745383 46.539301201701164 39.873846359550953 3.979681283235549 3.3322512805461875 3.2057297676801673
leaf_count=11325 36 465 1619 209 466 3208 2792 12641 752 2075 4063 398 2515 5454 167 45 107 2654 320 383 86 947 174 118 24 347 359 28 24 20
internal_value=0 0.581384 -0.701808 0.234817 0.145108 -0.374268 -0.544467 1.01596 -0.240708 0.772847 0.044764 0.310659 0.336301 -0.999796 0.0545376 0.14527 0.0977571 0.840881 -0.10278 0.0223952 -0.243129 0.672924 -0.561168 -0.156352 0.280057 0.487692 0.278799 -0.0318522 0.105987 -0.284822
internal_weight=0 3735.49 3086.66 2078.19 1781.2 1470.42 646.533 1657.3 823.887 296.991 1168.13 212.725 613.067 1616.24 131.486 122.758 206.817 510.531 83.56 190.179 93.6602 243.867 172.351 53.0893 96.5185 147.373 93.7251 53.8512 49.8716 271.359
internal_count=53821 28359 25462 10894 8610 8683 4431 17465 4252 2284 5029 966 3581 16779 568 532 1066 4824 365 959 469 2170 1044 292 490 1223 758 399 371 1639
shrinkage=0.1


Tree=17
num_leaves=31
num_cat=0
split_feature=248 202 16 477 237 228 47 228 0 336 370 141 255 233 58 209 279 156 376 229 469 201 129 337 279 308 271 25 16 342
split_gain=2383.73 588.334 240.822 95.6358 35.8379 33.939 24.5581 23.9316 20.1347 19.5986 18.3287 15.6874 18.4549 15.1948 13.9815 15.7526 13.1837 12.9856 12.6601 12.6391 13.7781 16.1131 15.5698 13.9187 12.16 16.3081 14.2214 11.4758 11.3527 16.0809
threshold=0.56815609335899364 0.9959276318550111 0.1115379184484482 0.48303492367267614 0.12078733742237091 0.95439934730529796 0.24907971173524859 0.99964702129364025 24.500000000000004 0.00016251629858743402 0.42547294497489935 0.019480187445878986 0.031877642497420318 0.030467771925032142 0.027044817805290226 0.00084365622024051856 0.022409309633076194 0.019086496904492382 0.26668298244476324 0.2159271985292435 0.10355520620942117 0.020575203932821754 0.024645815603435043 0.018166306428611282 0.0052996259182691583 0.019592622295022014 0.00076415072544477891 0.00031845281773712491 0.84369945526123058 0.092367209494113936
decision_type=2 2 2 2 2 2 2 2 2 2 2 2 2 2 2 2 2 2 2 2 2 2 2 2 2 2 2 2 2 2
left_child=2 3 13 5 6 8 17 16 9 -2 -5 12 14 -1 -7 -16 18 -4 -3 20 -17 23 -23 -22 25 28 -27 -28 -10 -30
right_child=1 7 4 10 -6 11 -8 -9 24 -11 -12 -13 -14 -15 15 19 -18 -19 -20 -21 21 22 -24 -25 -26 26 27 -29 29 -31
leaf_value=-0.10569019180171289 -0.10957623886142139 0.044999932978977503 -0.035079757389370157 0.034325955616477402 -0.070729346915558725 0.056744085826714002 -0.017426524987252064 0.10805891536509904 -0.013225478350835321 0.033919053783519081 0.089676569356093097 0.051982199866604663 0.090573636335370411 -0.084304928649956076 -0.10660338914117906 0.044273796387950891 0.097588487421253145 -0.07228867320352321 0.091818883253792977 0.061988170677042612 -0.018210824744465292 -0.27915328929054262 0.0067418731464681707 0.064795113581743391 0.0060157836647609375 -0.14933268183808324 0.12605394385251678 -0.028409783144365982 0.0036247827816947194 0.096961103343497404
leaf_weight=963.41183334589005 9.9164046198129636 139.44112475216389 242.13887871801853 85.320222809910774 277.66206411272287 57.608792632818222 603.57621565461159 1049.7772867158055 111.69446554780006 236.96045493334532 200.21184485405684 222.67960980534554 32.506454773247242 507.15169516205788 12.59026552736759 53.041629113256931 240.51597991585732 153.0933301076293 98.591262012720108 37.206095300614834 154.65146958827972 4.375090315937995 3.3738169968128204 23.236549258232117 607.72355642914772 9.628911614418028 4.8926465660333625 284.20804969221354 53.500924840569496 28.182674795389175
leaf_count=11325 41 1202 1601 529 2076 323 3166 12641 463 1074 1772 1485 217 5249 55 280 2587 1227 1035 242 790 25 22 142 2633 41 20 1216 221 121
internal_value=0 0.518024 -0.707296 0.19089 -0.389497 0.111667 -0.301152 0.996102 0.0234697 0.281552 0.731372 0.309209 0.18533 -0.983151 0.117665 0.0278442 0.810764 -0.494926 0.64392 0.0777644 -0.00674282 -0.135172 -1.54677 -0.0736821 -0.0344616 -0.151311 -0.297776 -0.257957 0.0749485 0.358279
internal_weight=0 3761.84 2747.03 2233.51 1276.47 1947.98 998.808 1528.33 1346.71 246.877 285.532 601.27 378.59 1470.56 346.084 288.475 478.548 395.232 238.032 275.885 238.679 185.637 7.74891 177.888 1099.83 492.108 298.73 289.101 193.378 81.6836
internal_count=53821 29177 24644 11712 8070 9411 5994 17465 5830 1115 2301 3581 2096 16574 1879 1556 4824 2828 2237 1501 1259 979 47 932 4715 2082 1277 1236 805 342
shrinkage=0.1


Tree=18
num_leaves=31
num_cat=0
split_feature=78 228 248 168 233 373 248 228 471 78 298 50 354 285 185 53 312 225 186 423 36 219 0 26 86 95 15 97 446 372
split_gain=2045.74 403.355 380.337 72.1512 40.5721 26.8781 24.0534 22.8168 21.4014 16.7577 14.1367 13.4713 13.2713 15.2739 12.8154 13.4752 12.7947 12.2495 12.2173 13.8842 15.1663 12.2063 11.8992 14.1407 16.0336 15.5524 14.7302 13.9898 11.5787 14.4229
threshold=0.76511102914810192 0.99631190299987804 0.1330390200018883 0.34761683642864233 0.4181420654058457 0.0012282798998057844 0.046827236190438278 0.99964702129364025 0.27188901603221899 0.97410133481025707 0.27628572285175329 0.073634460568428053 0.080440163612365737 0.00089594509336166084 0.0017698906012810769 0.0065109659917652616 0.038171380758285529 0.5047852396965028 0.17002236843109134 0.18062085658311847 0.23711901158094409 0.0010684065055102112 29.500000000000004 0.00016544095706194642 0.034432942047715194 0.0012955794809386136 0.00079343043034896265 0.094286348670721068 0.015917401760816578 0.47369949519634252
decision_type=2 2 2 2 2 2 2 2 2 2 2 2 2 2 2 2 2 2 2 2 2 2 2 2 2 2 2 2 2 2
left_child=2 3 6 8 5 -4 -1 10 9 -2 16 -8 -11 28 -15 18 -3 21 19 20 -16 -5 23 -6 25 -25 -26 -24 -14 -30
right_child=1 7 4 17 22 -7 11 -9 -10 12 -12 -13 13 14 15 -17 -18 -19 -20 -21 -22 -23 27 24 26 -27 -28 -29 29 -31
leaf_value=-0.1027442108010489 0.0065173025874396264 0.048347885238098277 -0.018571603250948528 -0.088659501883134859 -0.16414985828092926 -0.056078451724809422 -0.065294174644221867 0.1068418394510607 0.054597533625248822 0.077285885931010448 0.10001351178486206 -0.10609768863228378 0.043624768700428362 0.075311257080308808 -0.057530236427294379 0.035403231744590244 0.098603225408791031 0.10427372461594453 0.036400669771565641 0.088656396119774147 -0.28945624766671207 0.063881902094805529 -0.0091685061390405741 0.020474328030958385 -0.11447188760816317 0.1430486038938262 -0.00050468396588696201 -0.046521409872164132 -0.11299746978779257 0.047238730350838892
leaf_weight=996.48981329798698 935.16413141787052 171.08010082691908 319.51669569313526 5.6200080737471572 5.1332744508981696 475.25254374742508 344.14160781353712 960.14644578099251 142.5305463373661 53.649408176541328 183.2501459941268 105.78306179493666 13.404333613812922 54.968582056462765 28.455227077007297 185.44855802506208 71.972101017832756 110.97261901944876 24.465114533901215 5.7320931181311598 3.1296639591455451 78.775440134108067 295.58683343231678 35.574850618839264 11.667356744408606 14.599420964717863 405.35347639769316 151.7416130900383 20.555976718664173 7.7296651527285567
leaf_count=12726 4136 1643 1874 36 22 3594 3442 12641 980 339 2174 1204 76 337 160 1279 806 1188 161 39 21 579 1295 151 50 62 1898 764 98 46
internal_value=0 0.58421 -0.563135 0.253302 -0.244517 -0.409998 -0.940791 0.982938 0.177674 0.138285 0.790414 -0.748876 0.310272 0.238104 0.316382 0.21928 0.632294 0.824371 -0.1852 -0.545261 -0.805112 0.53724 -0.101509 0.00918878 0.0273256 0.561403 -0.0369324 -0.218393 -0.329305 -0.692095
internal_weight=0 3057.05 3160.84 1670.6 1714.43 794.769 1446.41 1386.45 1475.23 1332.7 426.302 449.925 397.539 343.889 302.199 247.231 243.052 195.368 61.7821 37.317 31.5849 84.3954 919.657 472.328 467.195 50.1743 417.021 447.328 41.69 28.2856
internal_count=53821 26739 27082 9475 9710 5468 17372 17264 7672 6692 4623 4646 2556 2217 1997 1660 2449 1803 381 220 181 615 4242 2183 2161 213 1948 2059 220 144
shrinkage=0.1


Tree=19
num_leaves=31
num_cat=0
split_feature=248 202 16 112 237 228 358 47 188 400 233 478 163 310 4 309 268 188 18 429 312 192 87 425 302 477 217 375 29 399
split_gain=1752.57 516.469 229.291 76.8202 31.6684 26.8229 26.7134 20.0477 18.8534 18.0135 17.0096 14.7696 14.064 13.7173 12.979 12.6701 16.9339 16.9345 14.0628 14.9561 12.061 11.9811 11.9435 11.8513 11.8103 11.8095 11.4399 11.3794 11.3353 11.1137
threshold=0.56815609335899364 0.9959276318550111 0.1115379184484482 0.53691411018371593 0.12078733742237091 0.99964702129364025 0.44726927578449255 0.24907971173524859 0.0061710313893854627 0.043627044185996063 0.030467771925032142 0.0056826244108378896 0.29192018508911138 0.31271871924400335 0.073208950459957137 0.0058367957826703796 0.023270466364920143 0.0011380515643395486 0.00010466901585459711 4.2421395846758976e-05 0.038171380758285529 0.004090669099241496 0.00054655512212775658 0.00032988496241159743 0.0093693574890494364 0.53192692995071422 0.031647814437747009 0.0015050998190417888 0.097369156777858748 0.007509250659495593
decision_type=2 2 2 2 2 2 2 2 2 2 2 2 2 2 2 2 2 2 2 2 2 2 2 2 2 2 2 2 2 2
left_child=2 3 10 6 7 13 8 22 15 -10 -1 -8 14 20 -11 16 17 18 -2 -20 -3 24 -4 -18 -17 -5 -23 -26 -16 -25
right_child=1 5 4 25 -6 -7 11 -9 9 12 -12 -13 -14 -15 28 21 23 -19 19 -21 -22 26 -24 29 27 -27 -28 -29 -30 -31
leaf_value=-0.10285978834112304 0.074283537940675479 0.049441403926851382 -0.024344880877459726 0.054149318998711851 -0.064541343192833153 0.10572096970431184 0.0088440454182093231 -0.013568985998489005 0.055382513665388301 0.026176081569741362 -0.078516333757966836 0.053442549271980236 0.028819999874386812 0.10122283052533075 -0.017020804526234199 -0.051946089405144683 -0.14066621261445678 0.026055347576066548 -0.17708084672540833 -0.017684261324967473 0.094531431645180283 -0.025200626679977994 -0.060255262121625047 -0.011362611991441923 0.093532531275078726 0.10456584357134727 0.080340390288162367 0.024965696087658706 -0.14204069904051306 -0.050685956201808172
leaf_weight=810.5311956256628 16.18979649245739 202.64804430305958 176.21393625438213 100.83314219117165 256.82507275044918 877.51847196370363 118.04532302170992 590.65408743172884 114.76514980196953 81.362116530537605 444.40723107755184 200.17181114852428 227.53438924252987 135.8409404233098 145.20105878263712 17.064886853098869 8.5804191231727582 195.7501567080617 6.084002196788787 181.37992026656866 83.877141714096069 92.470325581729412 195.22927633672953 271.21336502581835 28.239075422286987 86.161292895674706 11.553368434309958 169.39820294082165 7.6335648521780959 97.784492038190365
leaf_count=11325 73 2037 1209 753 2076 12641 657 3166 574 389 5249 1384 1315 1765 688 76 37 881 26 781 1022 430 1619 1191 133 1014 60 776 37 437
internal_value=0 0.458759 -0.642349 0.160988 -0.333441 0.957551 0.103416 -0.250163 0.0528792 0.199265 -0.942391 0.368984 0.111138 0.750497 -0.0608879 -0.0241403 -0.0930127 0.0505264 -0.15135 -0.228574 0.62641 0.143755 -0.432193 -0.244849 0.27871 0.773797 -0.134787 0.347628 -0.232651 -0.217833
internal_weight=0 3477.3 2473.86 2177.42 1218.92 1299.88 1990.42 962.097 1672.2 576.496 1254.94 318.217 461.731 422.366 234.197 1095.71 776.982 399.404 203.654 187.464 286.525 318.726 371.443 377.578 214.702 186.994 104.024 197.637 152.835 368.998
internal_count=53821 29177 24644 11712 8070 17465 9945 5994 7904 3003 16574 2041 2429 4824 1114 4901 3426 1761 880 807 3059 1475 2828 1665 985 1767 490 909 725 1628
shrinkage=0.1


Tree=20
num_leaves=31
num_cat=0
split_feature=240 233 202 168 248 361 0 233 370 405 469 399 228 135 24 200 206 311 440 112 268 49 217 76 321 189 361 16 187 25
split_gain=1499.58 385.861 314.782 66.6008 44.7365 28.2275 21.2504 19.6968 19.4175 17.79 25.2687 18.0409 17.3018 17.0557 16.8305 16.0604 16.2092 14.1125 13.9265 13.5517 12.4424 12.0792 17.4092 12.0895 11.5429 11.0749 10.7965 12.9468 12.4955 11.258
threshold=0.83152946829795849 0.11653691902756692 0.99753993749618541 0.34761683642864233 0.35220021009445196 0.028977631591260437 24.500000000000004 0.030467771925032142 0.56074440479278576 0.0045684324577450761 0.12205963581800462 0.002205548458732665 0.99964702129364025 0.00040478989831171935 0.30519798398017889 0.00031777103140484547 0.0051763257943093785 6.2460789195029079e-05 0.0070458559785038233 0.56352150440216076 0.17105040699243548 0.0020625507459044461 0.0029824587982147936 0.053475929424166686 0.014834854286164049 0.00048762168444227433 0.105156384408474 0.92406055331230175 0.0044710631482303151 0.00067370382021181296
decision_type=2 2 2 2 2 2 2 2 2 2 2 2 2 2 2 2 2 2 2 2 2 2 2 2 2 2 2 2 2 2
left_child=1 7 3 8 5 -3 14 -1 9 10 15 13 -4 25 17 16 -2 -6 -19 20 21 -13 -23 -24 -22 -11 29 28 -28 -12
right_child=2 4 12 -5 6 -7 -8 -9 -10 11 26 19 -14 -15 -16 -17 -18 18 -20 -21 24 22 23 -25 -26 -27 27 -29 -30 -31
leaf_value=-0.10152908558917213 0.039306641550795191 -0.024854910782546962 0.076498990843860012 0.084462834358694117 0.10656916427815506 -0.067998384899665545 -0.015225514835009543 -0.074762467112459416 0.060808540424698902 0.089765297947559775 0.040143902048410784 0.048263923164160116 0.10467997590096829 0.082113530835687509 0.063361648954994507 0.024961975598181224 -0.090557478746901621 -0.0098286048975691487 0.083401273371842888 0.08524831597030097 0.023004269990451971 -0.088652991492038952 -0.0019168082922265536 0.06992504297949291 0.080004812236399686 -0.10898002971065493 -0.0088317885218261154 0.047511801937048806 -0.20069506279979882 -0.060640152979142485
leaf_weight=742.52477791160345 15.345371372997759 423.65882136672735 299.18274245411158 174.3249771669507 12.547837674617766 236.19807172566652 995.35498090833426 436.5569117218256 100.84565160423517 4.2058988213539115 12.476656824350355 55.559492081403732 801.50636818259954 82.559842102229595 58.636924684047699 278.1571559086442 25.721733510494232 202.787388458848 17.397174425423145 29.325975678861141 166.40655443817377 21.722126163542271 288.55191954225302 25.493052549660206 45.170595318078995 8.410454295575617 12.267560303211214 29.818145520985126 4.6929957568645468 99.258100867271423
leaf_count=11325 74 2854 3819 1873 56 2183 4850 5454 811 20 58 303 12641 465 385 1376 115 903 79 237 1058 107 1528 171 349 37 53 159 21 457
internal_value=0 -0.464738 0.565199 0.264061 -0.191287 -0.402983 -0.0827249 -0.916187 0.186566 0.151293 0.00137262 0.249757 0.9702 0.655653 0.154799 0.163435 -0.420317 0.0341612 -0.0246235 0.188653 0.156364 0.0507323 -0.0207354 0.0391506 0.351736 -0.427245 -0.324998 0.0783494 -0.619205 -0.493863
internal_weight=0 3125.66 2581 1480.31 1946.58 659.857 1286.72 1179.08 1305.99 1205.14 477.738 727.406 1100.69 95.1762 291.369 319.224 41.0671 232.732 220.185 632.23 602.904 391.327 335.767 314.045 211.577 12.6164 158.513 46.7787 16.9606 111.735
internal_count=53821 28089 25732 9272 11310 5037 6273 16779 7399 6588 2313 4275 16460 522 1423 1565 189 1038 982 3753 3516 2109 1806 1699 1407 57 748 233 74 515
shrinkage=0.1


Tree=21
num_leaves=31
num_cat=0
split_feature=233 228 233 39 479 228 356 233 185 464 298 248 100 248 0 400 312 90 117 204 414 290 337 77 129 427 288 381 447 62
split_gain=1283.85 464.513 196.704 66.1624 32.4093 26.8096 25.0168 19.1867 22.9479 17.5528 15.4013 15.0322 14.5941 14.1329 14.177 18.6608 12.9634 12.5839 15.7427 14.1169 12.4602 13.3779 14.1976 12.0328 13.7235 12.1196 15.4676 11.9332 11.9123 14.0148
threshold=0.53259494900703441 0.99631190299987804 0.098454106599092497 0.56122317910194408 0.12884372472763064 0.99964702129364025 0.44579418003559118 0.23680627346038821 1.1193164937139956e-05 0.006146827945485712 0.27628572285175329 0.024166150018572811 0.21031953394412997 0.93019646406173717 34.500000000000007 0.13399311155080798 0.038171380758285529 0.20496433228254321 0.32025870680809027 0.00818027136847377 0.015877472236752514 0.0078326370567083376 6.1847396864322959e-05 0.0024104265030473475 0.002046165987849236 0.27113567292690283 0.19210625439882281 0.048019310459494598 0.017979604192078117 0.09450108185410501
decision_type=2 2 2 2 2 2 2 2 2 2 2 2 2 2 2 2 2 2 2 2 2 2 2 2 2 2 2 2 2 2
left_child=2 3 11 6 7 10 13 8 -4 -8 16 -1 -5 14 -2 -16 17 18 -3 28 21 -10 -23 -6 -25 -26 -27 -21 29 -20
right_child=1 5 4 12 23 -7 9 -9 20 -11 -12 -13 -14 -15 15 -17 -18 -19 19 27 -22 22 -24 24 25 26 -28 -29 -30 -31
leaf_value=-0.10130797041508749 0.0056738697488735133 0.051875026816136739 0.25025397919136344 -0.042051274262536124 -0.084174066729974267 0.10370451616031423 0.0090064576794564224 -0.010957550138035085 -0.041674292630496663 0.066068455029375681 0.095040480086261037 -0.076356658156765761 0.090376158778610341 0.016839985712689992 -0.005162564559748407 -0.058128402146925162 0.092985425509852462 0.073441770959698366 -0.18481474023928779 0.043855803031441952 -0.065907666680028232 0.16951060646368202 -0.0016796552596383193 0.13849245779247016 -0.073493904675177732 0.17157856119518611 -0.02559257961510647 -0.22571758208870782 -0.2526899276493943 0.015278994074969358
leaf_weight=630.76797306537628 859.80795165151358 50.227641545236111 2.6949667185544959 8.9207480475306493 135.16676921397448 731.7085390239954 96.872153222560883 542.55296571552753 172.12569872289896 121.54633590579033 146.7413173392415 391.20691425353289 123.95823013782501 657.06512295454741 277.89869722723961 87.449997246265411 57.859111696481705 58.751886576414108 5.3989847823977497 20.699249617755417 141.36397791653872 5.3816227018833152 48.546052843332291 4.2536236122250548 54.732141517102718 4.7345304787158993 24.920966058969498 1.7836030423641194 3.8071973025798789 9.9541492834687215
leaf_count=10504 3755 528 20 65 1300 12641 655 3070 1332 1049 2174 5467 1441 3788 1167 383 806 690 38 235 1394 33 394 33 493 33 181 21 38 93
internal_value=0 0.391458 -0.599225 0.130538 -0.312955 0.927618 0.0872508 -0.22933 -0.404879 0.407605 0.702214 -0.917567 0.814857 0.050076 -0.0133825 -0.178405 0.527523 0.372974 0.141828 -0.312793 -0.426204 -0.280576 0.15404 -0.65397 -0.367643 -0.455982 0.05886 0.224701 -0.943493 -0.550847
internal_weight=0 3320.45 2158.45 2233.52 1136.47 1086.93 2100.64 912.665 370.112 218.418 355.223 1021.97 132.879 1882.22 1225.16 365.349 208.482 150.623 91.8708 41.6432 367.417 226.053 53.9277 223.808 88.6413 84.3876 29.6555 22.4829 19.1603 15.3531
internal_count=53821 29567 24254 12303 8283 17264 10797 6243 3173 1704 4623 15971 1506 9093 5305 1550 2449 1643 953 425 3153 1759 427 2040 740 707 214 256 169 131
shrinkage=0.1


Tree=22
num_leaves=31
num_cat=0
split_feature=233 228 233 112 479 228 370 405 0 233 185 248 471 467 298 121 39 307 204 301 470 5 312 354 439 396 290 477 348 373
split_gain=1093.6 431.552 189.617 59.9373 29.005 27.9272 18.5234 17.6079 22.0922 16.5918 16.5999 15.8135 15.4284 18.6 15.1322 14.6098 14.6504 22.1885 13.8809 13.024 12.7663 18.2785 12.3117 12.095 17.3294 13.0299 17.0556 11.8348 11.7631 11.3741
threshold=0.53259494900703441 0.99631190299987804 0.098454106599092497 0.54638391733169567 0.12884372472763064 0.99964702129364025 0.56074440479278576 0.0045684324577450761 24.500000000000004 0.23680627346038821 1.1193164937139956e-05 0.024166150018572811 0.015713433735072616 0.020547317340970043 0.27628572285175329 0.029547411948442463 0.066190209239721312 0.064850397408008589 0.0017009268631227317 0.013721803203225138 0.0041876053437590608 0.021189320832490924 0.038171380758285529 0.25945261120796209 0.0041168001480400571 0.60980743169784557 0.11133002862334253 0.52222058176994335 0.071191500872373595 0.0033028993057087068
decision_type=2 2 2 2 2 2 2 2 2 2 2 2 2 2 2 2 2 2 2 2 2 2 2 2 2 2 2 2 2 2
left_child=2 3 11 6 9 14 7 12 -9 10 -4 -1 13 18 22 -10 17 -17 -2 20 -14 -22 23 -3 25 -25 -27 -5 -12 -6
right_child=1 5 4 27 29 -7 -8 8 15 -11 28 -13 19 -15 -16 16 -18 -19 -20 -21 21 -23 -24 24 -26 26 -28 -29 -30 -31
leaf_value=-0.10013143755195771 -0.011406160516367642 0.072743443469277594 0.19089877824758344 0.046846149149135777 -0.089142488733166797 0.10278183368691485 0.053257509068275748 0.053556766844480741 0.038501267030043501 -0.0099187408772703559 -0.030181501913540798 -0.07357450751294041 -0.01458579582913503 0.084242452543238755 0.093217777378678562 -0.12645292996026672 0.0065825391902169308 0.032026657785537302 0.032936406076040814 0.051118145784878347 -0.043253149396348819 -0.2368021554292716 0.090950151328991147 -0.023112648275929203 0.033722017288045802 -0.37209592417828197 0.0097197004167309479 0.10254706896329589 -0.074463352317253026 -0.042354428533863883
leaf_weight=577.11007055640221 197.79540628939867 53.45662097632885 3.149972401559352 84.238909333944321 89.661732904613018 667.71981012821198 84.410101912915707 125.32020804286003 141.50234058499336 539.60105594992638 279.80146855860949 366.683608841151 505.31073492765427 32.253328390419483 135.24227045103908 20.639048390090466 767.29384115338326 15.446154370903967 109.77506800740957 28.329629674553871 25.729466333985332 6.0211405083537093 53.465475149452686 12.438234850764276 75.358000479638577 2.8695204928517333 1.9752512648701666 69.711049467325211 76.360567711293697 123.55584508180618
leaf_count=10504 861 611 20 706 935 12641 694 779 725 3070 2335 5467 2301 149 2174 92 4052 79 524 156 122 33 806 107 873 28 24 1030 818 1105
